tree
version=v4
num_class=1
num_tree_per_iteration=1
label_index=0
max_feature_idx=37
objective=regression
feature_names=solar_zenith_angle temperature relative_humidity wind_speed pressure is_daylight hour sin_hour cos_hour baseline_pred solar_elevation air_mass clear_sky_ghi_est baseline_clear_sky_index cloud_cover_proxy dew_point residual_lag_1 baseline_pred_lag_1 residual_lag_2 baseline_pred_lag_2 residual_lag_3 baseline_pred_lag_3 residual_lag_6 baseline_pred_lag_6 residual_lag_12 baseline_pred_lag_12 residual_lag_24 baseline_pred_lag_24 residual_roll_mean_3 residual_roll_std_3 residual_roll_mean_6 residual_roll_std_6 residual_roll_mean_12 residual_roll_std_12 residual_roll_mean_24 residual_roll_std_24 baseline_error_trend_3 baseline_error_trend_6
feature_infos=[10.71658757367465:169.17914172601218] [1.1000000000000001:42] [9:100] [0.20000000000000001:10.5] [957:986] [0:1] [0:23] [-1:1] [-1:1] [1.8407655954360962:1016.796875] [-79.179141726012176:79.283412426325356] [0:36.31661482771969] [0:1015.974424346123] [0:40.50318719225433] [0:1] [-13.126629545153747:20.020110899612863] [-819.4405517578125:592.0880126953125] [1.8407655954360962:1016.796875] [-819.4405517578125:592.0880126953125] [1.8407655954360962:1016.796875] [-819.4405517578125:592.0880126953125] [1.8407655954360962:1016.796875] [-819.4405517578125:592.0880126953125] [1.8407655954360962:1016.796875] [-819.4405517578125:592.0880126953125] [1.8407655954360962:1016.796875] [-819.4405517578125:592.0880126953125] [1.8407655954360962:1016.796875] [-397.305908203125:298.10287475585938] [0.0048279286274928532:574.26704667510467] [-259.25858561197919:152.78288777669272] [0.041900125521195063:440.60348004347509] [-136.06411790847778:74.054018656412765] [0.62606817291350902:323.34811469560265] [-70.958359092473984:44.865329494078956] [5.4316590597345966:225.37497702799141] [-829.0128173828125:959.84222412109375] [-985.654296875:812.22576904296875]
tree_sizes=5299 5313 5346 5325 5345 5352 5351 5344 5343 5341 5384 5351 5366 5366 5329 5354 5344 5308 5354 5323 5387 5315 5341 5328 5337 5355 5356 5348 5375 5346 5327 5341 5336 5359 5340 5346 5388 5339 5335 5320 5346 5332 5345 5336 5408 5319 5334 5342 5338 5376 5341 5362 5359 5354 5364 5374 5341 5343 5372 5330 5347 5377 5378 5347 5312 5298 5366 5362 5334 5362 5374 5340 5359 5334 5347 5389 5335 5352 5363 5370 5337 5368 5360 5364 5365 5407 5403 5359 5371 5338 5351 5343 5398 5343 5390 5344 5372 5376 5395 5368 5371 5387 5355 5410 5363 5328 5431 5329 5330 5376 5324 5358 5384 5370 5358 5317 5386 5389 5306 5427 5388 5361 5328 5319 5384 5364 5373 5303 5395 5353 5393 5316 5343 5394 5322 5369 5395 5375 5364 5428 5360 5354 5288 5346 5409 5364 5348 5385 5345 5407

Tree=0
num_leaves=63
num_cat=0
split_feature=36 7 37 6 18 5 35 34 21 21 30 19 21 17 32 20 18 10 22 22 22 17 19 2 10 2 2 9 13 11 2 20 18 19 32 22 15 33 27 15 29 29 33 34 9 2 27 27 22 34 29 0 20 0 22 29 27 22 20 35 31 27
split_gain=417966 405479 310066 179782 218357 218206 179737 286296 192476 272863 187166 188318 119747 117030 116531 112218 110651 572733 141758 106732 176804 100941 152939 261862 95755.9 92198.6 91570.2 148381 90611.4 238692 206269 208993 175602 168091 129848 103408 98255.5 94298.9 89650.4 99593.4 241771 209672 155294 136447 135598 151722 130985 247546 111534 192915 173426 261093 150305 111406 87169.8 86471 85680.3 90400.2 82925.2 81132 80907.3 78948.1
threshold=-0.94786041975021351 -0.5 6.6624479293823251 2.5000000000000004 -307.25120544433588 1.0000000180025095e-35 114.91504905169212 -38.014979720115655 410.47097778320318 246.38018798828128 -10.198939005533854 93.444061279296889 2.6150820255279545 526.17752075195324 -60.343625495831169 -69.950500488281236 46.872741699218757 34.398802151621283 -2.7435188293457027 31.990142822265629 13.463928222656252 452.66571044921881 300.15309143066412 49.245000000000012 55.190030512948717 64.535000000000011 59.755000000000003 292.67030334472662 0.11801113037748018 1.4519930611764682 64.855000000000004 -19.430648803710934 -121.32518768310545 311.16950988769537 -0.36648803452650702 -2.7435188293457027 11.920563333857165 26.76453860153099 981.47817993164074 12.791917597771809 94.68487221703829 76.106151392373832 56.661437966286137 -16.137167627612747 389.44311523437506 54.155000000000008 511.58154296875006 331.84840393066412 -22.871850013732907 -11.791814744472502 189.03000823580552 100.33988583466878 9.4393768310546893 115.97534008888533 -1.9781417846679685 55.279247769255583 229.77051544189456 -101.33697509765624 -6.6292877197265616 54.910994269614186 140.51754237161933 974.21475219726574
decision_type=2 2 2 2 2 2 2 2 2 2 2 2 2 2 2 2 2 2 2 2 2 2 2 2 2 2 2 2 2 2 2 2 2 2 2 2 2 2 2 2 2 2 2 2 2 2 2 2 2 2 2 2 2 2 2 2 2 2 2 2 2 2
left_child=1 2 6 5 -5 -2 10 -8 9 55 11 -1 -3 -4 -13 -7 28 18 21 20 38 25 23 -23 -14 -18 -20 -28 61 34 32 -32 -31 35 -30 -34 58 -37 39 40 43 59 -42 -16 46 -46 47 -45 49 -44 51 52 -50 -53 -36 -9 -17 -58 -33 -41 -43 -6
right_child=3 12 13 4 16 15 7 8 -10 -11 -12 14 24 -15 19 56 17 -19 26 -21 -22 22 -24 -25 -26 -27 27 -29 29 30 31 36 33 -35 54 37 -38 -39 -40 41 42 60 48 44 45 -47 -48 -49 50 -51 -52 53 -54 -55 -56 -57 57 -59 -60 -61 -62 -63
leaf_value=-6.1539353493344118 -4.9992982215618493 -4.9845042019177264 -2.7868590922208609 -6.9816348421023253 -4.6951220678312469 -3.3899123100112423 -1.5367122403581379 -4.3235564316218422 -7.1799514649035547 -1.1663176337373731 -5.0920711089678994 -7.4759887122022963 -4.6988884562935169 -4.6048924568833405 -6.2993125243089017 -4.0257513054133538 -3.2182755487326036 -8.9086104434635018 -3.6835888396672232 -3.6704780661549172 -8.1630071590284743 -4.652261897085312 -5.1462124181489823 -9.4427097842195664 -4.1036989694152046 -5.1829749031299626 -3.5747920191587177 -7.0925120635789227 -3.8906896395799038 -2.6053475455559805 -8.1773925133612586 -3.5238324008738089 -2.5541326464004741 -5.5361808701734887 -0.68532648311402244 -4.3153005121719463 -6.7778549218641029 -5.9721938451463767 -3.5851194937131137 -5.6850540065381621 -2.1929047737105778 -6.6091522758852292 -1.6920050137821923 -2.4628494624164516 -5.3292422057298623 -7.4898646513599054 -2.3570021472792297 -6.6461206759968601 -4.5261464086271577 -5.5029121031830428 -6.7983472480641485 -7.7994506821792449 -1.2658960970975004 -4.6374894768533359 -3.3130366883143081 -6.4183462138423666 -6.3708377788050488 -4.4770992567000611 -5.7330714523877884 -3.3434049956210501 -8.8926597922684465 -4.0056992299015208
leaf_weight=375 343 1377 34 37 8716 156 28 48 26 20 1445 23 3564 487 160 600 41 33 121 34 20 20 269 21 261 45 22 21 182 44 26 35 28 128 21 469 23 33 26 36 26 47 26 21 331 32 25 32 27 22 39 20 24 20 25 28 24 387 27 21 20 152
leaf_count=375 343 1377 34 37 8716 156 28 48 26 20 1445 23 3564 487 160 600 41 33 121 34 20 20 269 21 261 45 22 21 182 44 26 35 28 128 21 469 23 33 26 36 26 47 26 21 331 32 25 32 27 22 39 20 24 20 25 28 24 387 27 21 20 152
internal_value=-4.75479 -4.91293 -5.16144 -4.64028 -4.68415 -4.33415 -5.27868 -4.26674 -4.89542 -4.27482 -5.33192 -5.5782 -4.74462 -4.48589 -5.36889 -4.13865 -4.67604 -5.07406 -4.8474 -5.32059 -5.37824 -5.15455 -5.40679 -7.11134 -4.65826 -4.24562 -4.10595 -5.29418 -4.65221 -4.38745 -4.62807 -5.8292 -4.43802 -4.56088 -3.52986 -4.32523 -5.10775 -4.42444 -5.31957 -5.36823 -5.2462 -6.15941 -4.35397 -5.54907 -5.27658 -5.52041 -4.14233 -4.9874 -4.67089 -3.43659 -5.1273 -4.40968 -2.98808 -6.22212 -2.1072 -5.09649 -4.2543 -4.58805 -4.48594 -4.82138 -7.29594 -4.6833
internal_weight=20774 8725 3523 12049 10539 1510 3002 150 122 96 2852 1407 5202 521 1032 1167 10502 593 560 1009 975 396 310 41 3825 86 164 43 9909 1041 813 111 702 658 228 530 85 502 955 929 805 124 204 601 441 363 78 53 178 48 130 91 51 40 46 76 1011 411 62 57 67 8868
internal_count=20774 8725 3523 12049 10539 1510 3002 150 122 96 2852 1407 5202 521 1032 1167 10502 593 560 1009 975 396 310 41 3825 86 164 43 9909 1041 813 111 702 658 228 530 85 502 955 929 805 124 204 601 441 363 78 53 178 48 130 91 51 40 46 76 1011 411 62 57 67 8868
is_linear=0
shrinkage=1


Tree=1
num_leaves=63
num_cat=0
split_feature=26 16 16 0 18 32 25 35 17 26 29 16 0 22 2 15 18 11 29 29 3 2 17 9 2 1 18 19 0 18 24 2 27 15 29 17 24 19 29 28 33 28 26 9 2 30 29 2 28 29 24 23 17 35 16 22 35 22 15 17 15 26
split_gain=1.02517e+06 458601 304804 221999 174831 174365 169498 375764 207779 155769 146475 197953 420735 154505 141977 200531 144235 140464 235916 228726 139904 132861 205107 130775 348924 133919 233048 258870 196432 154634 151392 149020 131539 128682 170977 158270 151927 178668 125779 117484 186102 122368 116389 166095 124078 139101 125531 200517 115737 110760 215752 256040 242259 173212 168786 153910 183921 110759 94785.1 88850.3 429876 87545.6
threshold=-5.6464316844940177 1.2257995605468752 -7.1040954589843741 53.250183060061595 -247.62701416015622 -23.763675143321354 2.2924567461013798 118.50098433393278 540.14773559570324 43.874118804931648 141.07511939178235 100.63800048828126 55.734008689358802 -4.2895264625549308 53.305000000000007 5.9402928403834681 53.603706359863288 1.3256568887637064 189.03000823580552 149.67505817610675 3.350000000000001 59.755000000000003 239.27768707275393 239.27768707275393 69.345000000000013 22.750000000000004 -44.937599182128899 435.88391113281256 56.888841293325108 -35.977958679199212 -2.2126613855361934 52.155000000000008 364.53405761718756 9.8473568175891923 40.072612150401824 435.88391113281256 -2.0295327901840206 332.49633789062506 189.03000823580552 -129.97521336873371 104.08617176148361 -104.82529958089192 10.069122314453127 160.72776031494143 63.915000000000006 -31.9760859409968 103.17883152351625 52.735000000000007 -5.4452959299087516 107.69482943708792 -2.0655349493026729 167.59683990478518 410.47097778320318 94.111201456542815 -63.597759246826165 72.228576660156264 81.334943687533013 -12.048244953155516 5.5618751617959026 380.88459777832037 7.1615079106928992 72.228576660156264
decision_type=2 2 2 2 2 2 2 2 2 2 2 2 2 2 2 2 2 2 2 2 2 2 2 2 2 2 2 2 2 2 2 2 2 2 2 2 2 2 2 2 2 2 2 2 2 2 2 2 2 2 2 2 2 2 2 2 2 2 2 2 2 2
left_child=2 6 17 9 5 -5 7 14 -9 -3 11 -4 -13 20 16 -16 39 49 19 -19 -12 -14 -23 -6 25 28 27 -27 -25 30 -30 -32 -26 34 -17 57 -36 -38 -22 40 -2 -41 -8 61 46 -46 -45 -48 -33 54 51 -51 -53 -52 55 56 58 -35 -1 60 -43 -44
right_child=1 3 10 4 23 -7 42 8 -10 -11 13 12 21 -15 15 33 -18 18 -20 -21 38 22 -24 24 32 26 -28 -29 29 -31 31 48 -34 35 36 -37 37 -39 -40 41 -42 59 43 44 45 -47 47 -49 -50 50 53 52 -54 -55 -56 -57 -58 -59 -60 -61 -62 -63
leaf_value=-2.0468410580011454 3.0451953909862999 0.48149860448570464 -0.14942370534930913 0.4174268138942433 0.8336621806730411 -3.537196701386971 0.059848764614148384 0.37681874801863485 4.6465001933382588 2.2102085581540396 0.88798992171899593 -4.9468843578797648 0.66224523132497615 1.9699983590765591 -3.0177685025567311 -1.4916145286655187 -2.084957527502989 -0.80620751198731055 -3.1179234516895025 2.4257967756755314 0.75849238482129522 0.43743078673063818 -3.8517293076017003 -2.8383642395930502 -0.79187646741719575 3.8785774372422779 0.46302049032205472 0.69595500890583906 1.3367839657208498 0.32188561645220465 -0.2329902759941084 -1.2420177258454359 -3.8677224620974435 0.65329560558895583 2.9577674807666181 -3.5752275819902293 1.5090172462856646 -2.1687361646054395 -1.9377394312489638 -1.8923065946429887 -0.57460442501235287 -0.67279555509250744 0.68539911347526417 0.091660065996228945 -3.0155230438008025 -0.3109384649099094 3.2444167932402648 -0.38930150498431987 -4.366000371548667 -3.4051449119775001 0.47401733800207163 2.4425163043528486 -0.9206983762948191 3.5472749655274134 -0.31313592321839379 1.199464161309721 -3.490374122393455 -1.6018133478312842 -0.60181031391609119 -0.21442178700733738 4.585216364220007 2.4371362754999488
leaf_weight=60 26 83 3338 20 577 20 8899 20 21 108 93 24 45 56 37 40 35 1021 39 20 25 20 20 20 29 39 1216 56 22 725 45 23 22 31 23 23 29 20 41 37 25 46 496 539 22 76 30 25 20 22 45 29 57 26 1064 22 33 53 128 902 20 27
leaf_count=60 26 83 3338 20 577 20 8899 20 21 108 93 24 45 56 37 40 35 1021 39 20 25 20 20 20 29 39 1216 56 22 725 45 23 22 31 23 23 29 20 41 37 25 46 496 539 22 76 30 25 20 22 45 29 57 26 1064 22 33 53 128 902 20 27
internal_value=0.00318284 0.141235 -0.318826 0.46991 0.403158 -1.56377 0.0547913 -0.256071 2.56971 1.45963 -0.143138 -0.190529 -1.44803 0.616392 -0.342266 -0.977955 -0.193028 -0.569539 -0.829896 -0.743886 0.138711 -0.455466 -1.71141 0.431372 0.326639 0.384429 0.574918 2.00521 0.092312 0.162839 -0.884761 -1.44103 -2.12368 -0.632109 0.0787823 -1.3756 0.952084 0.00653371 -0.916837 -0.13013 1.27313 -0.20146 0.0974547 0.372864 0.0679005 -0.920545 0.231105 1.59502 -2.70179 -0.380274 0.319451 -0.524962 0.214929 1.60284 -0.476121 -1.18935 -1.42758 -0.769784 -1.06383 -0.136642 0.925068 0.776282
internal_weight=20755 14527 6228 3025 2834 40 11502 1388 41 191 3662 3447 109 215 1347 256 1091 2566 1080 1041 159 85 40 2794 2217 2166 1311 95 855 835 110 88 51 219 112 107 72 49 66 1056 51 1005 10114 1215 692 98 594 55 43 1486 179 108 86 71 1307 243 221 84 188 968 66 523
internal_count=20755 14527 6228 3025 2834 40 11502 1388 41 191 3662 3447 109 215 1347 256 1091 2566 1080 1041 159 85 40 2794 2217 2166 1311 95 855 835 110 88 51 219 112 107 72 49 66 1056 51 1005 10114 1215 692 98 594 55 43 1486 179 108 86 71 1307 243 221 84 188 968 66 523
is_linear=0
shrinkage=0.03


Tree=2
num_leaves=63
num_cat=0
split_feature=26 16 21 30 12 1 16 12 18 19 28 37 20 26 28 28 35 9 26 2 35 1 16 21 32 18 6 36 33 1 1 9 1 30 28 18 26 18 18 18 21 16 35 21 34 30 22 36 29 17 29 18 22 3 11 37 16 35 29 26 21 33
split_gain=1.1054e+06 475628 258438 559496 253956 179705 322480 286139 269820 242099 219465 173191 177701 169696 259181 164543 154780 151477 267388 229922 240937 280473 206264 200939 133962 132962 126900 137843 191156 119681 178263 135044 113783 102466 101195 94597.8 94115.6 92275 91818.4 96602 181945 147240 121390 117264 105536 104770 91566 105544 111447 87284.2 219851 99514.4 82636.5 82523.5 78834 115801 151766 76591.4 75760.1 278663 185912 210190
threshold=-10.672149658203123 2.5033264160156254 67.466732025146499 23.405053138732914 649.88293531064994 22.650000000000006 258.60212707519537 554.86229788125945 -42.061920166015618 596.56286621093761 -20.857412974039708 -349.83590698242182 -307.25120544433588 -121.32518768310545 23.374491055806484 7.1430015563964853 71.748056969597073 160.72776031494143 6.8498840332031259 63.915000000000006 114.91504905169212 17.650000000000002 -49.986957550048821 567.41491699218761 -4.4810910920302058 100.63800048828126 2.5000000000000004 217.12430572509768 87.473657142171177 13.750000000000002 12.250000000000002 269.80656433105474 14.850000000000003 -10.198939005533854 -61.515126546223946 -11.661834716796873 18.130615234375004 -27.045105934143063 -307.25120544433588 -86.809112548828111 222.54634857177737 -30.846925735473629 119.68422129135332 137.15104675292972 -3.9521134247382474 -15.49442547559738 -121.32518768310545 104.36018371582033 90.629924602488913 482.12609863281256 24.103119901218346 61.51753234863282 -23.889980316162106 2.850000000000001 6.3160875815074187 -201.26738739013669 -185.84681701660153 63.207004424591076 107.69482943708792 4.4430847167968759 452.66571044921881 100.53122622345411
decision_type=2 2 2 2 2 2 2 2 2 2 2 2 2 2 2 2 2 2 2 2 2 2 2 2 2 2 2 2 2 2 2 2 2 2 2 2 2 2 2 2 2 2 2 2 2 2 2 2 2 2 2 2 2 2 2 2 2 2 2 2 2 2
left_child=2 17 3 13 5 6 7 26 9 10 -7 -4 -13 14 35 33 -6 18 -2 20 24 -22 29 -23 25 58 -3 34 -29 30 -21 -31 37 -15 -28 -1 -10 -24 -14 40 44 43 46 45 -40 -41 -42 48 -48 50 -26 -51 -50 -49 55 -45 -57 -17 -19 -60 -61 -62
right_child=1 4 11 -5 16 8 -8 -9 36 -11 -12 12 38 15 -16 57 -18 19 -20 22 21 23 32 -25 49 -27 27 28 -30 31 -32 -33 -34 -35 -36 -37 -38 -39 39 41 42 -43 -44 54 -46 -47 47 53 52 51 -52 -53 -54 -55 -56 56 -58 -59 59 60 61 -63
leaf_value=-1.4468976842743704 0.048701272032826412 0.58016421200430002 -2.6461898499521714 -4.6539426883317265 1.0165891823516673 4.8778858948330139 -3.1610862016677852 -3.354693190731219 0.29687218340189458 0.33592472567132009 1.5094713695287061 2.4294044519399667 -2.0191266310642439 -1.0476877070842048 -4.1267374622865791 0.047890251467370575 3.0087354477987889 -0.34496688568510681 0.69627759462029515 -2.6126813654985903 4.6818221248797505 2.5005388402227142 -2.4988379684846787 -1.6910370487737427 0.36829527487676572 -2.139021918304965 -1.9225651709389346 -3.4913025955101111 -0.14617024610332191 -1.6995914928415878 1.082592283872019 -4.2854623542060706 1.2724889311989682 -0.44364647459945272 0.1814698239353095 -0.03748205711271041 0.79301310447227391 -0.017410721047951355 -1.1415844528605186 -0.40259106858761723 -1.2376623658390786 -0.14914813830004983 2.8829796018643612 0.99387482688944528 1.2112246638790689 2.0772451957426457 0.39055662518896772 0.85510179176589474 3.7095790222509581 0.081484898011762008 3.6962564790871602 -1.5317851205281603 1.3643976715568125 -1.6834779905580384 -2.703086100013008 -3.4149617691385257 -0.83974634569110285 2.130888441420093 2.7976779431374772 0.69367231932147622 0.015899008298775115 -4.1045129235111055
leaf_weight=134 9416 618 26 31 148 33 26 20 898 48 37 23 25 310 27 35 46 1226 611 22 20 20 20 21 161 35 21 23 46 56 25 27 37 1369 824 63 558 41 92 50 23 1912 22 28 21 22 72 22 20 736 20 36 42 24 22 22 306 29 33 64 25 20
leaf_count=134 9416 618 26 31 148 33 26 20 898 48 37 23 25 310 27 35 46 1226 611 22 20 20 20 21 161 35 21 23 46 56 25 27 37 1369 824 63 558 41 92 50 23 1912 22 28 21 22 72 22 20 736 20 36 42 24 22 22 306 29 33 64 25 20
internal_value=-0.000499675 0.1189 -0.401277 -0.661409 0.437028 0.372158 0.145911 0.201511 0.598957 1.97813 3.10213 -0.213898 -0.190789 -0.598253 -1.37541 -0.498304 1.49026 0.034896 0.0881682 -0.167051 -0.081123 1.7788 -1.07752 0.354743 -0.129352 -0.315785 0.248153 0.023625 -1.26465 -1.86049 -0.648985 -2.54492 -0.0380518 -0.555229 0.128959 -0.996419 0.487056 -0.833752 -0.212993 -0.196195 0.278112 -0.264077 0.771269 -0.752255 -0.703652 0.356967 0.541107 0.768955 1.19435 0.145117 0.737864 0.00606604 2.12566 -0.470153 -0.963574 -0.855347 -1.01346 0.993601 -0.268985 0.386811 -0.344979 -1.82044
internal_weight=20790 16018 4772 1998 3346 3152 1578 1552 1574 118 70 2774 2748 1967 224 1743 194 12672 10027 2645 2417 61 228 41 2356 1403 1532 914 69 130 47 83 98 1679 845 197 1456 61 2725 2700 338 2362 225 450 113 72 203 180 134 953 181 772 62 46 378 356 328 64 1368 142 109 45
internal_count=20790 16018 4772 1998 3346 3152 1578 1552 1574 118 70 2774 2748 1967 224 1743 194 12672 10027 2645 2417 61 228 41 2356 1403 1532 914 69 130 47 83 98 1679 845 197 1456 61 2725 2700 338 2362 225 450 113 72 203 180 134 953 181 772 62 46 378 356 328 64 1368 142 109 45
is_linear=0
shrinkage=0.03


Tree=3
num_leaves=63
num_cat=0
split_feature=26 16 16 16 12 36 16 0 25 2 29 29 15 35 35 20 16 34 11 36 29 17 15 28 2 35 36 23 32 28 25 29 26 2 2 2 25 35 26 26 9 2 1 17 21 36 7 0 10 36 16 28 27 28 1 23 23 28 15 34 34 31
split_gain=1.01208e+06 538042 254259 223041 221525 170301 249355 542236 315739 300360 153627 143548 156155 369156 315635 212189 142816 142081 141391 186668 136342 320766 126214 116490 114575 113359 108850 103762 102061 99666.7 94879.1 256756 120521 94011.2 129635 129117 140267 177185 145895 113940 91536 318000 96454.5 150660 251694 137372 212111 110753 108227 97102.1 86925.8 124791 113371 100803 93532.3 165932 137415 84800.2 84364 106293 81452.2 78189.6
threshold=-7.1678879261016837 1.2257995605468752 -7.1040954589843741 -58.347442626953118 693.76037873353619 277.04620361328131 89.44040679931642 55.734008689358802 2.1134433746337895 48.705000000000005 149.67505817610675 120.00278297752142 9.6341999533089862 118.50098433393278 78.886887296543094 -69.950500488281236 46.872741699218757 -10.562567541996637 1.3256568887637064 -222.1128005981445 86.490650204176305 389.44311523437506 11.393845017251342 -65.763361930847154 65.135000000000005 154.9948770054587 -179.68934631347653 137.15104675292972 -10.366307621200876 -81.27431996663411 2.1889938116073613 98.466510721135435 10.069122314453127 55.375000000000007 52.735000000000007 67.02500000000002 1.9719635844230654 66.04552309631471 -47.497207641601555 -110.80288696289061 239.27768707275393 72.825000000000017 22.750000000000004 418.47764587402349 98.75952529907228 217.12430572509768 -0.78656609248549303 54.580073346002273 25.860559386418 189.57944488525393 -185.84681701660153 -129.97521336873371 653.44845581054699 -104.82529958089192 20.250000000000004 3.308732390403748 114.5409507751465 -44.88691981633503 5.0163107697606222 -0.51855701953172673 -15.040726172427336 75.872817425576102
decision_type=2 2 2 2 2 2 2 2 2 2 2 2 2 2 2 2 2 2 2 2 2 2 2 2 2 2 2 2 2 2 2 2 2 2 2 2 2 2 2 2 2 2 2 2 2 2 2 2 2 2 2 2 2 2 2 2 2 2 2 2 2 2
left_child=2 3 18 11 25 6 23 -8 9 -9 30 50 13 15 -14 -13 -6 -11 33 -20 28 -22 -10 -4 27 29 -16 -17 -21 60 31 61 -32 34 -1 36 -35 -38 39 -39 -31 42 45 44 -44 47 -47 -42 57 -45 -2 52 -52 -53 56 -56 58 -49 -55 -60 -3 -5
right_child=1 4 5 10 16 -7 7 8 22 17 -12 12 14 -15 26 24 -18 -19 19 20 21 -23 -24 -25 -26 -27 -28 -29 -30 40 32 -33 -34 35 -36 -37 37 38 -40 -41 41 -43 43 49 -46 46 -48 48 -50 -51 51 53 -54 54 55 -57 -58 -59 59 -61 -62 -63
leaf_value=-0.47375425582903513 -2.1704337810906837 3.0826095296190927 1.6273389536448475 -0.084358494384948773 1.0802855570772469 1.0183748497722491 -5.028331835245349 0.15828507812843443 1.2399682679365385 -5.4721951561516491 2.0798642040172979 -2.6283159426788782 1.5408007760791826 4.4976875910826761 -2.5694000242740906 2.9924388047708455 3.2167834115490685 -1.9283851988279994 -2.9792877886030404 -1.5816311454586558 -1.0204742906844777 2.8835605510445528 -1.2865558742487577 -0.16206292403138856 -1.0580716165144051 -1.4443197366195855 -0.15303148406435294 0.28708129751271211 -0.72375981010651369 0.73999479758536479 0.055239141394646578 -3.3492995098039695 0.39701363556650993 -1.009350833481534 -2.2658256735623348 -0.40240256859908807 -0.011321212229880993 2.7397532270915472 3.9718365030934608 -0.35087877929984745 -1.8048360409674704 -2.5906850514094995 0.92064653714157529 0.34298104432682325 4.3669508567223172 -3.2797791185050174 0.068231302599921481 -1.5051343994786539 1.5983531574665286 1.4377774585834997 -0.75455070167645055 -2.2571480848493364 2.2213913684069366 -0.45623445917034411 1.6564124756242429 -0.698240567815405 0.058772628021716275 0.26798326716696774 -2.726223143913681 -0.24542676121441284 0.49827310767783939 -1.3791712431680589
leaf_weight=786 38 23 33 871 129 105 29 31 68 21 34 20 39 21 51 25 36 20 35 147 51 30 24 3038 20 29 25 26 828 618 9260 23 1032 37 38 300 68 20 25 23 23 33 140 1101 22 26 49 25 54 78 22 41 24 36 36 106 60 740 70 20 21 44
leaf_count=786 38 23 33 871 129 105 29 31 68 21 34 20 39 21 51 25 36 20 35 147 51 30 24 3038 20 29 25 26 828 618 9260 23 1032 37 38 300 68 20 25 23 23 33 140 1101 22 26 49 25 54 78 22 41 24 36 36 106 60 740 70 20 21 44
internal_value=0.00028609 0.129389 -0.338131 0.0374389 0.478359 -0.17027 -0.208538 -1.25422 -0.584189 -2.07075 0.0692933 -0.490152 0.125565 0.922461 -0.65067 0.093377 1.5481 -3.75241 -0.574932 -0.826622 -0.754999 0.427237 0.580194 -0.142782 0.862669 0.419118 -1.77579 1.6165 -0.853249 0.437467 0.0631876 -0.225642 0.0895131 -0.36317 -0.556663 -0.0260454 0.626453 1.0719 2.15355 1.08965 0.415991 0.328563 0.371339 0.533472 1.39107 0.134209 -1.09523 0.243837 0.301583 0.415526 -0.79865 -0.672548 0.799565 -0.856231 -0.680482 -0.100541 -1.12294 0.209849 -1.68526 -2.17582 1.8531 -0.146767
internal_weight=20848 15091 5757 11944 3147 3369 3264 193 164 72 11264 680 227 112 115 91 165 41 2388 1091 1056 81 92 3071 71 2982 76 51 975 2953 11230 938 10292 1297 824 473 173 136 68 43 2909 2291 2258 1341 162 917 75 842 819 1179 453 415 46 369 328 142 186 765 126 90 44 915
internal_count=20848 15091 5757 11944 3147 3369 3264 193 164 72 11264 680 227 112 115 91 165 41 2388 1091 1056 81 92 3071 71 2982 76 51 975 2953 11230 938 10292 1297 824 473 173 136 68 43 2909 2291 2258 1341 162 917 75 842 819 1179 453 415 46 369 328 142 186 765 126 90 44 915
is_linear=0
shrinkage=0.03


Tree=4
num_leaves=63
num_cat=0
split_feature=26 16 12 16 35 25 35 33 3 33 18 18 4 16 20 18 3 26 19 25 36 36 26 2 7 2 2 16 2 9 20 16 16 9 18 35 26 9 16 36 18 18 7 9 2 23 27 20 34 9 29 26 16 35 24 16 4 36 36 4 9 3
split_gain=1.00609e+06 498511 222471 220560 163762 163196 340720 178074 245170 190834 159281 153862 132200 365868 159173 125605 165429 161275 120729 120208 119955 237655 538398 260433 113084 167296 168919 105969 105036 219532 161097 103412 95237 110659 94614.7 96370.4 91244.5 139994 93261.3 90673.8 86761.7 81674.7 90032.6 80944.8 202000 80765.3 136443 78500.5 76463.2 156385 95388.3 87170.9 194883 149473 107094 163029 82810.7 81895.4 75644.7 74980 74682.7 68236.5
threshold=-7.1678879261016837 1.2257995605468752 693.76037873353619 -7.1040954589843741 72.196272042839212 2.2924567461013798 117.05727913334999 99.127266485848864 3.1500000000000008 90.539823054430983 -185.84681701660153 -10.263319492340086 972.50000000000011 199.48144531250003 -53.275604248046868 -146.29359436035153 3.0500000000000003 -44.937599182128899 800.02709960937511 1.9591053724288943 277.04620361328131 112.51833343505861 -185.84681701660153 56.445000000000007 -0.91597561503675329 53.025000000000013 39.285000000000004 -185.84681701660153 61.965000000000011 389.44311523437506 -146.29359436035153 -101.33697509765624 -30.846925735473629 137.15104675292972 -161.43434906005857 101.60172875741445 6.8498840332031259 160.72776031494143 -25.925167083740231 -48.897056579589837 -146.29359436035153 -146.29359436035153 -0.60355339059327362 239.27768707275393 69.345000000000013 160.72776031494143 722.46667480468761 -63.597759246826165 -29.215638523300484 460.32841491699224 57.452528420671662 -161.43434906005857 -69.950500488281236 100.22639422949806 -2.0076675415039058 -92.815319061279283 972.50000000000011 -47.052309036254876 189.57944488525393 971.50000000000011 560.61077880859386 3.7500000000000004
decision_type=2 2 2 2 2 2 2 2 2 2 2 2 2 2 2 2 2 2 2 2 2 2 2 2 2 2 2 2 2 2 2 2 2 2 2 2 2 2 2 2 2 2 2 2 2 2 2 2 2 2 2 2 2 2 2 2 2 2 2 2 2 2
left_child=3 5 12 15 -4 6 7 9 -9 10 -2 19 14 58 18 16 39 -18 40 -10 21 47 23 -23 25 26 -7 59 30 31 -12 -30 33 -17 -24 -36 -29 -38 -39 -1 -3 42 -16 -43 -45 46 -42 61 49 50 57 52 53 -50 -53 56 60 -35 -14 -26 -56 -5
right_child=1 2 4 20 -6 24 -8 8 11 -11 28 -13 13 -15 41 32 17 -19 -20 -21 -22 22 34 -25 27 -27 -28 36 29 -31 -32 -33 -34 48 35 -37 37 38 -40 -41 45 43 -44 44 -46 -47 -48 -49 51 -51 -52 54 -54 -55 55 -57 -58 -59 -60 -61 -62 -63
leaf_value=-1.383093832337658 -2.6493671569216297 3.1970863562711043 0.95566473176280486 0.2886528958559002 3.0901361651536892 0.60889984764759009 2.6671477599021713 -3.6600243392667737 2.175707714026573 2.411556666520621 2.1381099289193806 -2.5218330319650568 0.26016099603541587 -3.8085299803747383 3.197314043187383 0.150374462967788 0.21493359500631634 3.7164846219157717 -0.39908712429878035 -0.99060538883122917 0.81813188330062114 -1.2074079328508518 -2.1649187536353609 -5.6314450330512464 -0.062319314301903558 -0.65638400472051373 4.4597268289594503 0.050997134588249664 -1.8036550875846036 -3.9375119266225327 -0.20243100838266265 0.18790034846293058 -0.43437243522976476 -3.0940210539719151 -0.48205564481422336 1.3854619462465503 0.68054332280586516 -0.44608646853585693 0.29548607285028966 1.0665986167850778 3.3512603310561886 0.79848877990978617 0.35231043331658657 0.35415512993736675 -2.4154866602410912 0.75722581141235368 0.92603999487823352 -0.16341560185528389 -4.1321121433540169 -3.5930101554164677 0.002513006225816058 -0.9199361734732836 0.49282996441636762 -0.80286026570334357 -0.8563106441929329 -0.83681280312705364 2.7136994689258174 -0.71163682745791024 -1.0169083394769098 -2.571701820175369 1.5585959491888022 2.1908126760433069
leaf_weight=42 25 24 115 87 45 21 35 33 21 24 27 22 782 21 20 94 27 21 35 22 105 20 25 30 20 24 20 9240 36 20 1133 67 1261 26 171 29 552 235 435 20 37 383 20 1432 24 112 48 2853 31 28 43 532 23 20 22 94 20 26 44 23 24 21
leaf_count=42 25 24 115 87 45 21 35 33 21 24 27 22 782 21 20 94 27 21 35 22 105 20 25 30 20 24 20 9240 36 20 1133 67 1261 26 171 29 552 235 435 20 37 383 20 1432 24 112 48 2853 31 28 43 532 23 20 22 94 20 26 44 23 24 21
internal_value=0.00396405 0.131553 0.468047 -0.336053 1.55754 0.0437006 -0.253025 -0.32468 -1.55825 -0.233811 -0.282531 -0.487211 0.40954 0.0923932 0.535348 -0.558467 0.430998 1.7514 1.23702 0.557194 -0.179332 -0.211721 -1.05517 -3.86777 0.0848287 1.33133 2.49363 0.0771034 -0.236209 -1.06944 -0.147773 -0.509252 -0.606988 -0.828353 -0.428708 -0.210709 0.0832183 0.32683 0.0353545 -0.592425 1.4962 0.43969 1.77924 0.410458 0.308339 1.28746 1.98442 -0.133354 -0.931845 -1.62618 -1.04332 -0.820155 -1.7984 -2.83065 -0.7153 -0.0347347 1.10716 -1.90648 0.192018 -1.4074 0.404288 0.660202
internal_weight=20872 15177 3142 5695 160 12035 1465 1430 98 1332 1308 65 2982 847 2135 2354 110 48 256 43 3341 3236 275 50 10570 65 41 10505 1283 123 1160 103 2244 983 225 200 10462 1222 670 62 221 1879 40 1839 1456 197 85 2961 889 123 95 766 74 51 692 160 66 52 826 43 46 108
internal_count=20872 15177 3142 5695 160 12035 1465 1430 98 1332 1308 65 2982 847 2135 2354 110 48 256 43 3341 3236 275 50 10570 65 41 10505 1283 123 1160 103 2244 983 225 200 10462 1222 670 62 221 1879 40 1839 1456 197 85 2961 889 123 95 766 74 51 692 160 66 52 826 43 46 108
is_linear=0
shrinkage=0.03


Tree=5
num_leaves=63
num_cat=0
split_feature=26 16 16 16 35 15 36 10 9 1 18 17 3 23 36 17 1 18 17 27 18 1 20 10 26 18 19 23 24 16 24 31 18 10 36 3 18 18 19 34 28 35 37 29 16 18 27 29 17 27 18 26 37 22 15 34 14 37 9 10 18 28
split_gain=874844 425497 200967 165249 176272 673602 231719 161965 155427 190107 258190 232245 152531 137858 185588 136033 126859 126085 328024 132597 153086 116924 114725 106970 106360 116664 118667 126884 101224 99186.4 98916.1 98808.5 98531.8 635366 122036 147841 102305 95890.6 94523 167634 161322 124534 136237 93085.9 92431.3 144850 88039.4 99998.4 87042.3 121525 115846 105124 84803.2 84510.8 100103 83697.8 114099 82371.5 82244.2 145466 81211.4 83654.5
threshold=-7.1678879261016837 1.2257995605468752 -7.1040954589843741 -32.344909667968743 106.51345922934391 8.4485558379616545 -179.68934631347653 27.671300437915328 160.72776031494143 20.450000000000003 9.4393768310546893 399.64270019531256 1.1500000000000004 21.352148056030277 217.12430572509768 318.61734008789068 20.550000000000004 46.872741699218757 460.32841491699224 613.57138061523449 -69.950500488281236 12.850000000000003 -42.061920166015618 -15.341786578648849 3.1965026855468754 -247.62701416015622 579.74542236328136 32.030181884765632 -1.9949081540107725 -110.80288696289061 -2.0925217866897579 154.90911106046858 43.874118804931648 33.612450279820415 277.04620361328131 3.350000000000001 -247.62701416015622 -146.29359436035153 623.95101928710949 -31.71792387962341 -81.27431996663411 94.111201456542815 7.0072181224823007 23.344697851740545 -121.32518768310545 -121.32518768310545 596.33999633789074 200.92306145296934 246.38018798828128 268.95797729492193 -23.889980316162106 -121.32518768310545 60.789741516113288 -2.976980328559875 7.6443372899032811 -17.745390241344769 0.59972603780774281 -168.60295104980466 567.41491699218761 -17.607956803985456 -146.29359436035153 -14.061411023139952
decision_type=2 2 2 2 2 2 2 2 2 2 2 2 2 2 2 2 2 2 2 2 2 2 2 2 2 2 2 2 2 2 2 2 2 2 2 2 2 2 2 2 2 2 2 2 2 2 2 2 2 2 2 2 2 2 2 2 2 2 2 2 2 2
left_child=2 3 23 4 8 -6 -7 13 -2 17 12 -12 -11 14 21 -8 43 19 -19 22 28 30 -10 38 -15 -26 27 -27 -21 -13 -3 60 34 46 36 -36 -4 -29 41 -40 -41 -1 -43 -9 58 -46 47 -34 51 50 -50 55 -18 54 -24 -38 -57 -42 59 -14 -25 -62
right_child=1 7 32 -5 5 6 15 16 9 10 11 29 44 24 -16 -17 52 18 -20 20 -22 -23 53 31 25 26 -28 37 -30 -31 -32 -33 33 -35 35 -37 48 -39 39 40 57 42 -44 -45 45 -47 -48 -49 49 -51 -52 -53 -54 -55 -56 56 -58 -59 -60 -61 61 -63
leaf_value=-0.14862780770690465 0.43779257117391507 0.014234016291903092 -2.0826678965596241 0.072299910050242167 4.0063010391371936 -2.3324841275067905 -0.85036679557149442 0.052609415615306174 -2.3836990793785415 -2.7159773826599118 3.8414598861297997 1.3769878941118869 0.18515928396538123 0.072823604622051924 -2.32575174376022 2.5992943607159513 0.81474262997546043 0.19135056525081781 -4.63918254655451 -2.1586282619802128 1.5395121659464237 0.192469707928976 -1.0215246764312227 0.79484878663093805 -1.3037528411629273 3.0757371894551508 0.4178016389797109 2.8923760826907938 0.55648474350773902 -0.89329949977696887 -2.8940371852350459 -2.674107763022858 -0.097542327129704329 -4.7285835517564383 2.5344952496790114 -0.40600728914406792 -0.0040876156423798049 0.78366664914838624 -3.2685184777672607 1.8190450745067375 -2.399694768659669 2.5460185249529976 -0.52338213745451645 2.2080768250799796 2.0313957710107751 -0.32462080626207479 -0.82564280665220657 1.9916239472178667 3.1326688004963428 -0.0053760524550628972 0.58389136032218791 -0.189367846154569 -1.1075061253138949 -1.194085701571711 1.7819899378229656 -3.065175054872864 -0.50868359419990605 -0.50549350591287379 0.039473928580774323 -3.00339925507099 -0.94411769785523303 -0.48475324061961023
leaf_weight=389 150 21 24 10952 39 42 21 22 58 27 23 39 20 477 30 20 196 23 28 28 39 597 25 34 29 24 1049 20 22 31 21 22 192 31 34 28 34 578 20 26 22 34 21 100 27 176 147 23 20 904 80 1719 23 165 21 33 30 320 32 36 637 812
leaf_count=389 150 21 24 10952 39 42 21 22 58 27 23 39 20 477 30 20 196 23 28 28 39 597 25 34 29 24 1049 20 22 31 21 22 192 31 34 28 34 578 20 26 22 34 21 100 27 176 147 23 20 904 80 1719 23 165 21 33 30 320 32 36 637 812
internal_value=0.000615768 0.118778 -0.318708 0.0372102 -0.31469 0.759639 -0.768887 0.427019 -0.449876 -0.612288 -0.156545 1.23304 -0.563193 0.352965 -0.0236815 0.834625 1.04479 -1.07011 -2.4646 -0.870821 0.132837 0.0847439 -1.20281 -0.531546 0.468706 0.579775 0.61254 0.940845 -0.965252 0.371735 -1.44332 -0.682452 -0.167922 -0.613692 -0.107618 1.20801 -0.136341 0.854664 -0.258523 -0.60052 -0.454672 0.0404071 1.37524 1.81975 -0.362586 -0.0104131 -0.260103 0.126772 -0.119703 0.104448 1.09627 -0.243627 0.612449 -0.877233 0.25943 -1.204 -1.85053 -0.628009 -1.17405 -1.86633 -0.652728 -0.686747
internal_weight=20867 15231 5636 12044 1092 122 83 3187 970 820 411 93 318 2846 669 41 341 409 51 358 89 639 269 2337 2177 1700 1671 622 50 70 42 1505 3299 393 2906 62 2844 598 832 388 368 444 55 122 291 203 362 215 2820 1004 100 1816 219 211 46 97 63 342 88 56 1483 1449
internal_count=20867 15231 5636 12044 1092 122 83 3187 970 820 411 93 318 2846 669 41 341 409 51 358 89 639 269 2337 2177 1700 1671 622 50 70 42 1505 3299 393 2906 62 2844 598 832 388 368 444 55 122 291 203 362 215 2820 1004 100 1816 219 211 46 97 63 342 88 56 1483 1449
is_linear=0
shrinkage=0.03


Tree=6
num_leaves=63
num_cat=0
split_feature=26 16 23 0 7 34 32 29 2 2 18 1 29 9 37 37 2 18 11 33 37 29 26 30 29 9 2 1 18 19 9 26 27 15 32 20 18 22 34 29 4 16 18 20 16 4 3 26 18 34 26 34 24 31 21 32 9 15 27 31 27 15
split_gain=858046 387289 253079 218889 181588 225250 219350 265352 258979 247854 291943 229188 176820 169103 155685 153573 549165 338870 227283 191777 146024 145973 143791 139877 123887 114903 474279 128451 176165 244056 109836 99497.5 110670 97213.5 99357.8 116444 79920.5 158305 128859 256505 87619.2 79894.9 78707.5 77402.5 91396.9 107825 114097 182119 130356 96420.3 114618 75258.3 75048.9 195957 99845.3 91964.5 74679.8 74513.5 69800.1 91403.1 125669 85451.3
threshold=-11.377218246459959 1.2257995605468752 27.774311065673832 49.50199261944983 -0.70710678118654735 -38.014979720115655 -12.543190732598303 120.00278297752142 51.895000000000003 35.955000000000005 -146.29359436035153 24.450000000000003 23.344697851740545 533.52600097656261 -45.806955337524407 95.345565795898452 58.645000000000003 1.2257995605468752 1.7715547495820976 88.778173241262323 -134.90212249755857 214.10510759843007 3.1965026855468754 -3.4151708781719203 112.90572636775283 284.87892150878912 69.345000000000013 22.750000000000004 -44.937599182128899 497.61012268066412 468.63818359375006 15.941253662109377 183.88663482666018 6.2339878864416569 -36.441648513078682 -86.809112548828111 -16.633743286132809 -19.430648803710934 -7.975520258148511 126.65955196753204 970.50000000000011 117.69561767578126 258.60212707519537 61.51753234863282 -58.347442626953118 972.50000000000011 1.6500000000000004 -42.061920166015618 1.0000000180025095e-35 -10.679967100421587 -37.947898864746087 -7.0468609283367778 -4.6352105140686026 29.917489431918664 67.466732025146499 4.6889237860838575 222.54634857177737 11.497382807408247 780.02746582031261 28.111786527691798 398.64709472656256 10.180036367982021
decision_type=2 2 2 2 2 2 2 2 2 2 2 2 2 2 2 2 2 2 2 2 2 2 2 2 2 2 2 2 2 2 2 2 2 2 2 2 2 2 2 2 2 2 2 2 2 2 2 2 2 2 2 2 2 2 2 2 2 2 2 2 2 2
left_child=2 4 15 12 5 -2 8 51 9 20 -11 30 -3 14 33 19 18 -18 -17 23 -7 31 -5 43 58 -24 27 36 29 -29 -12 -6 -33 -10 35 -35 37 40 39 -39 -27 -40 -4 44 45 49 47 -47 -48 50 -1 -8 53 -38 55 -54 -36 -21 59 -25 -61 -62
right_child=1 3 42 22 21 6 7 -9 13 10 11 -13 -14 -15 -16 16 17 -19 -20 57 -22 -23 25 24 -26 26 -28 28 -30 -31 -32 32 -34 34 56 -37 52 38 41 -41 -42 -43 -44 -45 -46 46 48 -49 -50 -51 -52 -53 54 -55 -56 -57 -58 -59 -60 60 61 -63
leaf_value=-0.53215251151163867 2.6705102697595371 0.49608029385546704 -0.1004931764614119 0.025135264419438964 0.037075750162538244 -2.9329193339229049 -0.82121628352541709 2.3651760784866251 -3.4244113615439637 -1.6245707548258941 2.0979565762240311 3.7748330803804615 2.3238026201267012 -3.7943318326278086 0.72157801426563062 -1.8697553980068897 -1.000167518543406 -5.9382418537446533 1.1551354754984708 -1.099693373617423 -0.60867504587970811 2.4011376544554945 0.8295234024974858 -0.26454447462591435 1.632156086079428 2.6046479137975775 -3.2220587054768357 3.9418589517069003 0.50305707501920949 0.59192029250758593 -0.428767570360439 0.68838714383537714 0.018736203161291855 -1.5637072780915291 -0.49121359743144172 1.4085832984526574 0.68287853688672417 0.045581168559060165 -0.80033018284749458 -4.7529419187289559 -0.10633363723754882 1.1997005964254404 1.6622488294328959 1.2062951182696355 -0.5500990294905459 1.4663872042137558 -1.6478289553790486 -2.3506913921844337 -4.23041859396261 -1.4527558496673334 2.1286103623738217 -0.053399617619616743 0.52456007743264255 -3.1184881523473935 0.18899727720844214 2.4676606392266014 -2.541335149222824 -3.3770722980428882 -0.78118308524380398 1.7480744300267992 0.54107469502528005 -1.6553338301626972
leaf_weight=47 23 100 1740 1013 10133 28 132 39 24 34 26 30 91 28 29 38 21 31 54 25 182 24 556 845 32 20 33 33 950 48 38 464 426 27 22 21 31 20 81 20 23 23 23 20 1168 24 108 21 21 49 21 882 56 20 392 36 59 27 191 51 47 24
leaf_count=47 23 100 1740 1013 10133 28 132 39 24 34 26 30 91 28 29 38 21 31 54 25 182 24 556 845 32 20 33 33 950 48 38 464 426 27 22 21 31 20 81 20 23 23 23 20 1168 24 108 21 21 49 21 882 56 20 392 36 59 27 191 51 47 24
internal_value=7.91776e-05 0.102902 -0.360216 0.380031 0.0253443 -0.270848 -0.313268 -0.059926 -0.799972 -0.285742 0.754451 1.61576 1.36764 -1.62711 -1.29179 -0.534238 -1.48874 -3.94977 -0.0949495 -0.483672 -0.919823 0.068889 0.323767 -0.448465 -0.206319 0.45293 0.335652 0.402806 0.617691 1.95989 0.599386 0.0637893 0.367896 -1.67363 -1.3455 -0.263105 0.0959113 -0.437811 -0.914723 -2.35955 1.15771 -0.357288 -0.0774036 -0.643268 -0.668702 -1.14439 -1.61776 -0.316179 -2.0712 -0.439633 0.291473 -0.153423 0.282512 -0.811039 0.397885 1.28676 -1.9858 -2.28639 -0.25726 -0.153706 0.613576 -0.202657
internal_weight=20845 16217 4628 3546 12671 1624 1601 1053 548 338 128 94 191 210 182 2865 144 52 92 2721 210 11047 3355 2669 1190 2342 1786 1753 1031 81 64 11023 890 153 129 48 722 187 144 40 43 104 1763 1479 1459 291 174 45 129 117 68 1014 535 51 484 92 81 52 1158 967 122 71
internal_count=20845 16217 4628 3546 12671 1624 1601 1053 548 338 128 94 191 210 182 2865 144 52 92 2721 210 11047 3355 2669 1190 2342 1786 1753 1031 81 64 11023 890 153 129 48 722 187 144 40 43 104 1763 1479 1459 291 174 45 129 117 68 1014 535 51 484 92 81 52 1158 967 122 71
is_linear=0
shrinkage=0.03


Tree=7
num_leaves=63
num_cat=0
split_feature=26 16 16 12 25 35 2 26 23 37 15 18 4 14 23 4 16 18 0 16 36 36 26 28 15 27 30 20 36 36 36 3 16 2 3 18 35 34 36 2 31 29 35 18 26 16 18 35 3 24 29 20 19 16 19 0 28 27 16 26 25 27
split_gain=842408 314695 225388 198953 195992 178086 221347 270710 170279 332490 300133 163355 195571 146092 133470 125676 510211 120539 112717 109711 149724 156486 107350 103872 235661 101676 116913 96911.2 94536.4 91281.1 95081.5 200437 111481 103928 91051.9 82781.4 78858.1 78388.4 162804 172456 112747 108199 87989.3 74663.1 112602 111388 87638.4 98082.4 180262 96029.4 92208 73217.4 131615 74374.3 107634 122830 213358 119585 113367 107247 73624.2 74107.3
threshold=-11.377218246459959 -1.8293457031249998 -30.846925735473629 693.76037873353619 2.0990390777587895 118.50098433393278 46.495000000000012 12.122039794921877 2.6153172254562382 95.345565795898452 12.429896266604617 -161.43434906005857 971.50000000000011 0.59972603780774281 13.708464145660402 972.50000000000011 199.48144531250003 -39.911289215087884 149.68693656532105 -209.06256103515622 -91.932800292968736 12.171144008636476 5.6321792602539071 -26.069608052571613 11.920563333857165 546.59350585937511 -33.433905839920037 -29.428782463073727 -39.40934753417968 277.04620361328131 157.35156250000003 3.5500000000000003 132.95477294921878 58.125000000000007 3.350000000000001 -132.02277374267575 38.67958411709899 -26.71836516757806 -56.737417221069329 53.305000000000007 174.29045916209193 200.92306145296934 101.60172875741445 -86.809112548828111 -30.846925735473629 -77.04613876342772 -53.275604248046868 82.691231869978921 3.0500000000000003 -2.8579674959182735 48.334977050833636 -146.29359436035153 292.67030334472662 -29.428782463073727 103.11033630371095 74.752838218924879 -31.229296366373692 167.03944396972659 -146.29359436035153 10.069122314453127 2.1209894418716435 253.13504791259768
decision_type=2 2 2 2 2 2 2 2 2 2 2 2 2 2 2 2 2 2 2 2 2 2 2 2 2 2 2 2 2 2 2 2 2 2 2 2 2 2 2 2 2 2 2 2 2 2 2 2 2 2 2 2 2 2 2 2 2 2 2 2 2 2
left_child=2 4 18 15 5 6 -2 19 9 -4 -11 12 -6 -5 25 22 -17 34 37 -8 -21 27 -3 24 -24 26 -9 -22 -19 30 32 33 36 -32 -16 -13 -10 38 39 -1 41 43 -41 44 45 -39 50 -48 49 -49 -45 52 -37 54 57 56 58 -53 -56 -55 -57 -62
right_child=1 3 8 13 11 -7 7 14 29 10 -12 35 -14 -15 17 16 -18 28 -20 20 21 -23 23 -25 -26 -27 -28 -29 -30 -31 31 -33 -34 -35 -36 51 -38 40 -40 42 -42 -43 -44 46 -46 -47 47 48 -50 -51 -52 53 -54 59 55 60 -58 -59 -60 -61 61 -63
leaf_value=-3.7561351911289482 -0.15468265537454554 0.12563746930941208 -0.4145885932597273 0.54177171615587238 3.0259140743773396 2.3160930921589085 -1.9223302429886224 -3.3045861773471117 -0.2561497520337444 -0.62180378704150185 -5.4151926090190932 -1.550319798060299 -0.31401183443985797 2.3367951647955398 -2.7472142318472326 0.10929829862084761 -4.3055428469329442 -2.5345755647833097 0.50135380988708156 2.5704481868000775 -2.4984339215840947 1.7084384637762351 0.58297122355355424 0.4723827621535347 3.68762003543765 0.35925954331804255 -0.47521490743479772 0.22814677619286791 -5.1776445666355864 0.82107713106870039 0.59633144251006165 -2.9250913807272547 2.1544701558440478 -1.5234073020810446 -0.10794240530435141 2.9071089060328124 0.14449371603721489 -1.7861973450155901 -0.4107653347211086 -2.1296654068725487 1.4667172047764203 -2.5199083697162195 -0.081842551944411798 -0.94433759306502163 1.5148890782699123 0.84761098473670471 -0.85550383447659806 -0.15668515941414099 -1.4630794137971013 2.3513861328641945 -3.2183745693886414 0.026404745338017468 -0.36923219197476065 0.038838304951153542 -1.1887710607697053 1.402302983054867 3.5169126355028766 -1.3867600963699367 1.6613110723538635 0.40736311174955364 0.21318252385669464 -0.74755893320198585
leaf_weight=38 848 874 1520 91 36 22 21 24 1079 24 23 29 28 74 24 1050 24 32 60 23 25 25 82 1603 30 33 29 22 20 97 56 33 20 33 23 22 749 34 92 46 21 30 32 42 33 25 454 24 35 32 26 92 22 9669 29 23 23 130 22 767 122 177
leaf_count=38 848 874 1520 91 36 22 21 24 1079 24 23 29 28 74 24 1050 24 32 60 23 25 25 82 1603 30 33 29 22 20 97 56 33 20 33 23 22 749 34 92 46 21 30 32 42 33 25 454 24 35 32 26 92 22 9669 29 23 23 130 22 767 122 177
internal_value=-0.0109608 0.0913279 -0.366484 0.329009 0.017726 -0.351534 -0.402808 -1.10156 -0.255696 -0.49154 -2.97402 0.0563672 1.56649 1.34774 -1.81367 0.283084 0.010251 -2.5644 -0.759592 0.0347058 0.46888 -0.205088 0.39626 0.534159 1.41712 -0.947477 -1.76025 -1.22439 -3.55913 -0.0768858 -0.12114 -0.93195 -0.0675646 -0.190467 -1.45863 0.0476674 -0.0919922 -0.838118 -1.35389 -2.10089 -0.696051 -0.758035 -1.29071 -0.682715 0.114099 -0.670631 -0.802302 -0.675353 0.223373 1.27814 -1.81727 0.051857 1.27182 0.0469895 -0.27276 0.0237125 1.125 -0.801376 0.0415213 0.0659269 -0.229649 -0.355611
internal_weight=20848 16190 4658 3828 12362 1171 1149 301 3634 1567 47 11191 64 165 185 3663 1074 99 1024 116 95 72 2589 1715 112 86 53 47 52 2067 1970 122 1848 89 47 11127 1828 964 208 116 756 735 78 705 92 59 613 545 91 56 68 11098 44 11054 618 396 74 222 51 10436 322 299
internal_count=20848 16190 4658 3828 12362 1171 1149 301 3634 1567 47 11191 64 165 185 3663 1074 99 1024 116 95 72 2589 1715 112 86 53 47 52 2067 1970 122 1848 89 47 11127 1828 964 208 116 756 735 78 705 92 59 613 545 91 56 68 11098 44 11054 618 396 74 222 51 10436 322 299
is_linear=0
shrinkage=0.03


Tree=8
num_leaves=63
num_cat=0
split_feature=26 16 21 30 30 9 2 15 36 23 1 36 18 15 28 25 33 33 31 22 17 35 36 1 17 13 22 16 18 26 9 18 36 15 32 16 26 2 13 34 34 37 37 34 32 9 18 35 16 0 35 3 1 23 36 16 2 22 30 2 16 25
split_gain=686089 328726 179216 297146 210117 168209 494488 161402 129751 123391 116437 239941 187339 137706 129065 111544 269857 128846 252390 229469 184576 105263 102692 93615 283049 180262 106007 92289.1 89403.1 85602.7 107276 110399 83453.8 81093.4 80193.3 76076 74338.9 135650 105058 96854.1 81404.5 70846.5 85756.1 69101.4 110509 76659.2 67334.8 88034.2 73018.9 66748.1 66740.8 64293.8 71402.7 70061.2 62625.8 100433 69044.5 62566.3 152468 136641 82190.1 201178
threshold=-5.6464316844940177 1.2257995605468752 67.466732025146499 19.280735651652023 -3.4151708781719203 284.87892150878912 69.345000000000013 11.920563333857165 277.04620361328131 260.22547912597662 18.050000000000004 217.12430572509768 -146.29359436035153 10.79807612000487 -19.993576049804684 2.3797284364700322 134.10122330862535 99.127266485848864 131.63248407502681 31.990142822265629 588.41500854492199 81.334943687533013 -150.99725341796872 21.150000000000006 389.44311523437506 1.6620504040509105 -77.04613876342772 57.034433364868171 -161.43434906005857 57.034433364868171 184.69500732421878 25.22440338134766 43.966136932373054 8.0838238311822384 -5.8562754938999797 199.48144531250003 -132.02277374267575 64.855000000000004 0.11801113037748018 -7.7891134321689597 -2.1451835185289378 -33.142423629760735 -183.28547668457028 3.0806550383567814 -1.6492611318826673 246.38018798828128 -12.030863761901854 101.60172875741445 -58.347442626953118 64.310590181691808 61.989921011848516 3.2500000000000004 20.450000000000003 246.38018798828128 -150.99725341796872 -92.815319061279283 53.905000000000008 -4.4203534126281729 -66.001653035481766 55.375000000000007 89.44040679931642 2.0990390777587895
decision_type=2 2 2 2 2 2 2 2 2 2 2 2 2 2 2 2 2 2 2 2 2 2 2 2 2 2 2 2 2 2 2 2 2 2 2 2 2 2 2 2 2 2 2 2 2 2 2 2 2 2 2 2 2 2 2 2 2 2 2 2 2 2
left_child=2 15 3 4 22 9 10 -5 57 21 11 14 13 -12 -7 16 17 18 23 20 -19 43 -1 26 25 -25 -2 -8 -28 54 -31 33 -26 -32 -35 -14 37 -6 -38 -40 -41 42 -30 44 -3 -45 47 48 -24 -16 -42 53 -53 -10 -17 56 -56 60 59 -59 -4 -62
right_child=1 5 8 7 36 6 27 -9 51 -11 12 -13 35 -15 49 29 -18 19 -20 -21 -22 -23 46 24 32 -27 28 -29 41 30 31 -33 -34 34 -36 -37 38 -39 39 40 50 -43 -44 45 -46 -47 -48 -49 -50 -51 -52 52 -54 -55 55 -57 -58 58 -60 -61 61 -63
leaf_value=-2.4633189191523286 1.5305442292226383 1.4011743165000015 -0.21995766678616216 -1.0915054883529889 -0.29567579253245208 -1.8372059041494999 -1.5690377242450781 -4.9051058754992125 2.803261957510534 0.60372086191936825 0.85801239431564214 -2.4041829326960045 0.35851570610459166 4.0969516421946297 1.6540545556963102 -0.62700579295964964 2.2684048572083566 -0.99616059232931908 3.1503915566117016 1.2560282849618212 -4.2978415094879985 2.9372805009676712 -1.8015671284703254 0.42201551892864164 -0.076969211708834584 4.4471828581681887 -2.1518571600653349 -4.2269548443256397 0.5745639016695111 1.5662588956261414 0.66707139111235925 1.6659065108432947 -1.5977503829163189 -2.1577148078683996 0.16651380673916508 1.8795168220996856 -0.19361288106738109 -3.1907060000433849 2.0566465491922492 -1.2530359024545585 -0.014135510232442479 -0.19807208720862349 -1.0865713144306965 3.3643949423263315 -1.2531485138975116 0.79666914511050568 -0.47775101811095272 0.73420384602899513 -0.84200500621303487 0.14359747223537217 1.9690760882252241 1.2429976779271952 -1.1180204760974346 0.65234059748855533 2.5064924322039004 0.072389418678637643 0.43046452922205769 0.10108527029860075 -0.057244937920906611 3.5619686126708978 -2.3907835275459659 0.44898558395759119
leaf_weight=29 22 39 1817 20 53 28 27 20 25 605 27 38 1790 21 29 114 39 39 20 22 25 38 93 20 682 20 31 21 32 78 39 32 34 30 24 30 1235 20 35 25 39 313 219 20 22 22 705 26 308 277 25 24 22 30 25 9617 34 21 1560 20 51 40
leaf_count=29 22 39 1817 20 53 28 27 20 25 605 27 38 1790 21 29 114 39 39 20 22 25 38 93 20 682 20 31 21 32 78 39 32 34 30 24 30 1235 20 35 25 39 313 219 20 22 22 705 26 308 277 25 24 22 30 25 9617 34 21 1560 20 51 40
internal_value=0.00828625 0.121199 -0.254778 -0.442983 -0.403334 0.398993 0.271422 -3.00578 -0.117499 0.790167 0.336034 -0.148619 0.432552 2.28062 0.108645 0.0479775 -0.191622 -0.25664 -0.187014 -1.3829 -2.29057 1.58917 -0.703238 -0.235854 -0.0120528 2.44067 -0.510028 -2.73825 -0.585722 0.0843758 0.693987 0.148872 -0.149398 -0.374347 -1.12633 0.383689 -0.160154 -1.09211 -0.110016 0.722064 0.19551 -0.499274 -0.874649 1.08945 0.443393 2.02448 -0.657934 -0.955244 -1.06494 0.287239 0.76242 0.94209 0.113839 1.63335 0.0717282 0.0799669 1.31289 -0.148023 -0.00973041 1.79388 -0.264058 -1.14341
internal_weight=20788 14545 6243 2633 2593 3034 2288 40 3610 746 2240 372 1868 48 334 11511 1518 1479 1393 86 64 141 1161 1373 756 40 617 48 595 9993 203 125 716 93 54 1820 1432 73 1359 124 89 564 251 103 61 42 1132 427 401 306 64 101 46 55 9790 9676 59 3509 1601 41 1908 91
internal_count=20788 14545 6243 2633 2593 3034 2288 40 3610 746 2240 372 1868 48 334 11511 1518 1479 1393 86 64 141 1161 1373 756 40 617 48 595 9993 203 125 716 93 54 1820 1432 73 1359 124 89 564 251 103 61 42 1132 427 401 306 64 101 46 55 9790 9676 59 3509 1601 41 1908 91
is_linear=0
shrinkage=0.03


Tree=9
num_leaves=63
num_cat=0
split_feature=26 16 16 12 25 18 1 33 15 29 19 22 37 32 27 20 11 1 16 10 18 30 34 34 15 21 27 0 26 2 17 15 16 21 18 22 4 20 16 26 34 25 28 34 37 15 19 37 9 37 0 4 37 34 2 28 17 15 1 9 29 16
split_gain=702247 294372 218113 159401 148608 207129 269631 173499 420375 167421 199286 203912 146035 252957 159489 149261 127352 125525 261323 177293 163373 162366 125015 122513 120921 131972 117978 103827 102370 96373 159239 95659 263294 295705 88259.4 142382 133491 96845.1 84409 126551 289324 174997 157277 98384.8 84805.5 82469.8 82325.7 79573.8 101550 77761.1 75502.8 74417.6 74308.9 134310 80869.3 125041 120980 73877.9 70293.5 136624 329802 94367.3
threshold=-10.672149658203123 1.2257995605468752 -5.4166100025176993 693.76037873353619 2.2155036926269536 -161.43434906005857 17.450000000000006 134.10122330862535 9.4306043975270981 64.64207695014484 239.27768707275393 -2.6150820255279537 -14.922325134277342 -9.0231422682603171 409.76133728027349 -17.66502475738525 8.2987353397998138 22.750000000000004 258.60212707519537 -24.21679173599362 -32.344909667968743 -66.001653035481766 -7.6422223846117641 -14.453908418615658 10.966304877929309 512.29382324218761 284.51623535156256 55.336337822631656 18.130615234375004 61.205000000000005 292.67030334472662 12.429896266604617 89.44040679931642 57.06134223937989 -146.29359436035153 1.8755855560302737 973.50000000000011 31.990142822265629 -58.347442626953118 -161.43434906005857 -17.362073401610051 2.0060479640960698 -24.883176406224564 -7.6422223846117641 -93.263542175292955 5.2747016598330978 703.44366455078136 -62.31065368652343 560.61077880859386 -45.806955337524407 66.818611841884675 972.50000000000011 -118.55885696411131 -24.122661225497719 52.155000000000008 -61.515126546223946 184.69500732421878 14.098333248709688 14.950000000000001 553.94598388671886 43.185186407805567 34.842208862304695
decision_type=2 2 2 2 2 2 2 2 2 2 2 2 2 2 2 2 2 2 2 2 2 2 2 2 2 2 2 2 2 2 2 2 2 2 2 2 2 2 2 2 2 2 2 2 2 2 2 2 2 2 2 2 2 2 2 2 2 2 2 2 2 2
left_child=2 4 16 17 7 6 -6 9 -9 52 11 -11 14 -14 -12 24 34 18 19 -3 22 -19 -21 -17 25 45 -5 -22 -23 50 -31 58 -33 -34 35 36 37 -1 39 40 -36 44 46 -44 -41 -16 51 48 -25 -18 -29 -43 -2 -54 55 -55 -56 -35 59 -4 -61 -60
right_child=1 3 31 26 5 -7 -8 8 -10 10 12 -13 13 -15 15 23 49 21 -20 20 27 28 -24 47 -26 -27 -28 29 -30 30 -32 32 33 57 38 -37 -38 -39 -40 41 -42 42 43 -45 -46 -47 -48 -49 -50 -51 -52 -53 53 54 56 -57 -58 -59 61 60 -62 -63
leaf_value=0.11847335434405602 -1.4225068864462624 0.36401449864344554 -0.17602150440555303 2.3179688794963855 -0.41584530416117532 0.05589641558855498 4.0910847471363239 4.7495412285648166 -1.3883471930204931 2.8894807691697948 -3.1797344302751149 -1.1424225326037514 -4.980728627489758 -0.42916255206293397 -1.3166675933650624 2.1814040391931036 -2.5345447078934953 2.8741334788827779 -2.6583514812875824 -3.3024689291577887 -1.7120641432075856 0.25350091385590245 -0.75258293935959353 -2.7617757031277042 -3.2428986954963066 -2.6351488002355659 0.65514286883195672 1.4650352356540171 0.74366624232783296 -0.13773272998561223 -3.0162723039563795 -0.19355149349910022 -5.3404279566522854 -2.195739025455802 -0.2392600033458791 2.5701365534163196 1.4557282248208687 -2.3183935728460217 -0.41859081127555575 1.2903816972075208 -3.8501628350085153 -0.48959199028857914 1.8830963222154107 -0.74799034855831625 -0.64475234678504678 1.2620692710952455 -2.9495327613907731 0.83032512447266704 -0.056678998938499973 -0.8234486434904793 0.14406523484486783 -1.565087856605244 1.884464733050115 1.9068455812730081 0.89325756620277053 -0.12593274700076454 -1.6112195183139044 0.34727588084071731 -0.074456174816188325 0.35055539087317455 -4.7651853324762028 0.46633755684958583
leaf_weight=32 39 1172 527 59 22 11029 26 20 20 23 25 22 23 21 20 21 43 25 30 25 32 995 56 20 26 24 110 47 624 96 21 292 20 20 42 21 30 27 1733 53 38 101 25 26 33 25 24 31 33 54 225 136 30 28 23 884 70 21 1013 26 20 407
leaf_count=32 39 1172 527 59 22 11029 26 20 20 23 25 22 23 21 20 21 43 25 30 25 32 995 56 20 26 24 110 47 624 96 21 292 20 20 42 21 30 27 1733 53 38 101 25 26 33 25 24 31 33 54 225 136 30 28 23 884 70 21 1013 26 20 407
internal_value=0.000443036 0.0955274 -0.319334 0.337998 0.027331 0.064464 2.02884 -0.260694 1.68479 -0.316877 -0.926116 0.920166 -1.2352 -2.81429 -0.925287 -0.642033 -0.519275 0.292599 0.112158 0.161965 -0.309732 0.479607 -1.54269 0.137612 -1.50298 -0.84362 1.23668 -0.0722025 0.442456 0.0631015 -0.656528 -0.113245 -0.568354 -2.35924 -0.474719 0.354422 -0.170685 -0.998739 -0.515984 -0.868925 -1.9571 -0.649758 -0.979964 0.542919 0.547944 0.115586 -1.27763 -0.375323 -1.08075 -1.5838 0.372776 -1.10715 -0.138688 -0.0901793 -0.149306 -0.0633207 -0.991539 -0.895543 -0.0326111 -0.313055 -1.87919 0.0805679
internal_weight=20786 16022 4764 3517 12505 11077 48 1428 40 1388 314 45 269 44 225 200 2418 3348 1704 1674 502 1644 81 105 95 69 169 421 1619 389 117 2346 353 61 2321 110 89 59 2211 478 80 398 312 51 86 45 261 84 53 97 272 237 1074 1035 1005 912 93 41 1993 573 46 1420
internal_count=20786 16022 4764 3517 12505 11077 48 1428 40 1388 314 45 269 44 225 200 2418 3348 1704 1674 502 1644 81 105 95 69 169 421 1619 389 117 2346 353 61 2321 110 89 59 2211 478 80 398 312 51 86 45 261 84 53 97 272 237 1074 1035 1005 912 93 41 1993 573 46 1420
is_linear=0
shrinkage=0.03


Tree=10
num_leaves=63
num_cat=0
split_feature=26 16 0 26 36 36 18 31 12 35 30 31 18 17 3 26 9 21 16 25 35 27 24 18 22 30 7 15 19 9 27 0 28 32 16 16 26 36 9 30 11 24 16 9 35 36 28 15 27 13 3 9 12 9 26 9 31 18 28 18 33 30
split_gain=717811 396742 163594 254999 520703 400359 341808 195841 155324 141579 137857 132592 108875 220372 149657 115307 97321.6 97369.2 94321.7 94198.9 276246 126813 184462 145263 124383 140430 121767 115313 118521 167024 153619 131112 111061 110562 98229.9 89401.2 112414 86088.1 83992.7 139377 82087.9 88617.9 112444 116992 110122 109299 95217 81220.1 72554.6 86018.9 73285.1 119491 75421.7 68006.5 65123.3 83689.7 65062 64905.2 74751.2 63608.5 60719.5 59784.5
threshold=-5.8548421859741202 1.2257995605468752 117.0036233015235 -161.43434906005857 90.485733032226577 -179.68934631347653 41.542465209960945 102.87912987735629 735.38727670212029 119.68422129135332 -3.4151708781719203 19.919432535529804 -146.29359436035153 560.61077880859386 1.8500000000000003 -47.497207641601555 246.38018798828128 184.69500732421878 -58.347442626953118 2.2924567461013798 117.05727913334999 511.58154296875006 -1.9949081540107725 100.63800048828126 -2.7435188293457027 -33.433905839920037 -0.91597561503675329 14.344311568886374 340.42141723632818 445.26344299316412 821.04061889648449 117.34969426497088 -36.247685750325516 -41.473836710055664 -185.84681701660153 18.130615234375004 -53.275604248046868 189.57944488525393 512.29382324218761 -49.137895822525017 27.79022300114325 -2.0724624395370479 -92.815319061279283 526.17752075195324 58.895206224727538 -43.503047943115227 -65.763361930847154 6.7671559521250986 253.13504791259768 0.4910863228162114 2.9500000000000006 512.29382324218761 170.16160540778591 526.17752075195324 30.562393188476566 153.04956054687503 154.90911106046858 25.22440338134766 -11.646671891212462 -20.988377571105953 99.127266485848864 -59.13852463165918
decision_type=2 2 2 2 2 2 2 2 2 2 2 2 2 2 2 2 2 2 2 2 2 2 2 2 2 2 2 2 2 2 2 2 2 2 2 2 2 2 2 2 2 2 2 2 2 2 2 2 2 2 2 2 2 2 2 2 2 2 2 2 2 2
left_child=2 19 3 4 5 -1 -6 9 16 18 40 -10 13 14 -4 -16 17 -3 -7 20 21 22 24 27 61 -26 32 28 30 -30 31 38 -21 -31 -28 -14 -37 56 39 -23 41 45 43 44 -43 48 -44 -24 49 -5 51 52 -50 -35 -36 -56 59 58 -57 -12 -55 -2
right_child=1 8 12 10 6 7 -8 -9 11 -11 37 -13 35 -15 15 -17 -18 -19 -20 26 -22 23 47 -25 25 -27 34 -29 29 33 -32 -33 -34 53 54 36 -38 -39 -40 -41 -42 42 46 -45 -46 -47 -48 -49 50 -51 -52 -53 -54 60 55 57 -58 -59 -60 -61 -62 -63
leaf_value=-4.3545275675225579 1.7491105549371062 1.9608049702106647 -0.26525546954566698 -1.5353640363295631 -1.0882000795344715 -2.0791718833559139 -5.4150592312099421 2.4993479654386443 0.79381993635045434 1.6444163136273264 0.6748213029120913 3.071761093791733 -0.21932100108366631 -1.6618446753727449 1.325377872153225 4.0279496484277653 0.29820296105063154 0.6063061275117565 -0.34875044537143168 0.36434255984061376 2.367796921601514 0.10762659961958805 -0.93970810635321156 -2.0558831763051426 -3.3194598747090702 -0.66619808845818773 -1.4740261702846003 -2.1803497376485104 -2.592455745237991 1.588786407209869 2.8190936385925403 -1.8292967848303192 2.8810787603087804 -1.8546511272885904 0.055289399999465909 1.0116235813994039 -0.0092026855175229433 1.447972890784178 0.016394831974437269 3.3053368306753543 -2.2450607765759667 1.4766266377616266 -1.8766395048792626 2.4187822051883971 -1.5883935182580451 -0.4827479151864682 -0.20274376324889706 -3.3964699956765125 -3.8342504124799772 0.55552270342045873 -0.56496141670582856 -0.16391957879541402 -1.9139664271156194 -0.043199365024895957 0.85864457922659632 -0.53835812964529361 -1.6283451178691923 1.3792674260678084 0.52728234317916445 -0.18226547753965111 -1.7140890470191612 -0.048513443655997177
leaf_weight=22 20 52 27 33 29 38 38 23 67 25 81 35 1411 24 35 24 2334 578 111 40 37 25 20 33 21 121 37 22 24 35 27 21 26 20 9568 128 401 30 62 24 24 21 33 29 21 957 403 31 27 38 46 25 59 748 212 143 27 30 101 1996 20 97
leaf_count=22 20 52 27 33 29 38 38 23 67 25 81 35 1411 24 35 24 2334 578 111 40 37 25 20 33 21 121 37 22 24 35 27 21 26 20 9568 128 401 30 62 24 24 21 33 29 21 957 403 31 27 38 46 25 59 748 212 143 27 30 101 1996 20 97
internal_value=0.00923409 0.123781 -0.261689 -0.370301 -1.23442 -0.525732 -3.54665 -0.0961585 0.427182 -0.440481 -0.306078 1.57771 -0.0425494 0.875163 1.58427 2.42968 0.387537 0.718399 -0.791164 0.0433438 -0.186608 -0.255713 -0.789388 -0.0997257 -0.464187 -1.06064 0.0752221 -0.0367369 0.0103534 -0.130753 0.761643 0.338986 1.35864 -0.0586596 0.0668145 -0.0946271 0.237947 -0.14509 0.750479 1.67739 -0.506262 -0.481467 -0.149506 0.956797 -0.0560162 -0.623471 -0.329839 -2.43676 -1.21367 -0.417091 -1.57341 -1.99044 -2.5206 -0.132025 0.0724996 0.41124 -0.167872 0.0648856 -0.0972175 -0.148809 -0.0869296 0.260004
internal_weight=20817 14631 6186 4136 286 219 67 197 3066 174 3850 102 2050 110 86 59 2964 630 149 11565 1408 1371 310 1061 259 142 10157 1028 1006 847 159 132 66 823 10091 1940 529 2134 111 49 1716 1692 507 71 42 1185 436 51 228 71 157 111 86 788 10054 486 2104 274 244 2077 768 117
internal_count=20817 14631 6186 4136 286 219 67 197 3066 174 3850 102 2050 110 86 59 2964 630 149 11565 1408 1371 310 1061 259 142 10157 1028 1006 847 159 132 66 823 10091 1940 529 2134 111 49 1716 1692 507 71 42 1185 436 51 228 71 157 111 86 788 10054 486 2104 274 244 2077 768 117
is_linear=0
shrinkage=0.03


Tree=11
num_leaves=63
num_cat=0
split_feature=26 16 16 9 2 25 34 2 9 30 22 17 12 35 29 26 30 26 37 26 35 26 37 29 26 16 22 30 36 16 0 25 2 34 2 9 25 34 35 26 30 29 13 27 35 37 34 7 16 2 34 29 3 9 29 2 9 16 25 27 3 19
split_gain=647908 277307 163704 132771 366915 115536 354721 125123 222184 398425 140681 249841 114856 114778 128667 114612 113937 103839 99312.2 97469.8 90884.2 118291 189624 125718 174285 95950.8 95278.8 94858.7 86666.1 245955 385469 243974 284703 201629 129961 94592.6 88645.5 97513.2 80987.2 95593.6 78990.6 76172.1 173987 126027 73504 71870.6 78929.6 71283.4 92503.4 115457 77007.7 69266.8 79986.7 69144.9 68870 67026.6 222562 110612 89261.6 156778 67586.7 65589
threshold=-5.8548421859741202 1.2257995605468752 -7.1040954589843741 284.87892150878912 70.725000000000009 2.2924567461013798 -36.351222758491822 47.595000000000006 671.56375122070324 13.344533522923788 22.734489440917972 623.95101928710949 711.60465788092563 84.001091098422648 112.90572636775283 5.6321792602539071 -7.6546128789583827 -307.25120544433588 -349.83590698242182 1.2257995605468752 127.17266819796525 -161.43434906005857 -154.20866394042966 90.629924602488913 -11.735363483428953 -34.210784912109368 72.228576660156264 -8.3762742678324376 277.04620361328131 89.44040679931642 55.734008689358802 2.1134433746337895 48.705000000000005 -9.0724036917090398 59.755000000000003 356.57676696777349 2.0060479640960698 -22.435649638374645 88.888258653609256 26.499679565429691 2.3728160063425707 177.7862530050883 0.97389571544981079 643.56375122070324 71.039851117773381 -59.004629135131829 -18.846665009856221 -0.91597561503675329 -185.84681701660153 58.645000000000003 -1.707774939636389 107.69482943708792 3.8500000000000001 153.04956054687503 157.23305042993528 55.650000000000006 730.99954223632824 199.48144531250003 2.0347709655761723 622.78976440429699 3.7500000000000004 52.087909698486335
decision_type=2 2 2 2 2 2 2 2 2 2 2 2 2 2 2 2 2 2 2 2 2 2 2 2 2 2 2 2 2 2 2 2 2 2 2 2 2 2 2 2 2 2 2 2 2 2 2 2 2 2 2 2 2 2 2 2 2 2 2 2 2 2
left_child=2 5 17 12 55 6 -2 13 10 -10 11 15 -3 14 44 19 38 -1 -19 -9 21 22 -20 25 41 26 53 -22 29 36 -31 32 -32 -34 -33 -36 37 -4 39 -17 -30 42 -25 -43 -8 46 -24 50 49 -49 -7 52 -41 -23 -50 57 58 -5 59 -57 -60 -55
right_child=1 3 28 4 -6 47 7 8 9 -11 -12 -13 -14 -15 -16 16 -18 18 20 -21 27 23 45 24 -26 -27 -28 -29 40 30 31 34 33 -35 35 -37 -38 -39 -40 51 -42 43 -44 -45 -46 -47 -48 48 54 -51 -52 -53 -54 61 -56 56 -58 -59 60 -61 -62 -63
leaf_value=1.3029867529473034 3.7356070788938602 0.61362151778067975 2.3438582151422001 0.32171253277857614 -2.7145908977786162 0.22209197315813101 -0.14844145412280854 -0.27981938653121902 -5.7179658681860461 0.05186664650966813 -2.4746899811262932 2.7806206200457262 2.2269353945861239 1.4696960708744209 -2.0064097491275867 -1.6737946533259711 1.0814342020517327 -2.3865608377977274 -4.0056332628873852 2.3694671226081563 1.7790719295916599 -0.059579127156962307 -0.41363859817163262 -0.29214910314206249 2.0413777021953212 -0.37061889657870756 1.0435271902203065 -0.59170060603219832 0.10116339971966287 -4.1865575558671324 0.32638645762020779 1.2623423156968081 -5.511487467148724 -1.3452189687472669 0.46087540132658816 -2.2858525737917801 -0.14904011136092857 0.23512931305261575 -2.4985788630488703 -1.2503281088438269 1.7763030037550669 -0.042330757965173507 2.2629196838683066 -2.9079516984840139 1.466742157936096 -0.0035977152459108642 -3.0779822000816686 0.23971192409743119 0.066412783468878925 -2.9786900790769657 2.4139049994994992 1.2163886225068723 0.84243419433568967 -1.6093323993547286 1.4582130835435101 -1.9299824722984482 -2.5380079216248927 1.9537979386922879 0.173956308864922 1.265463608475093 1.5496586638788146 -0.8243248256403285
leaf_weight=30 20 707 21 1972 37 36 892 33 21 22 29 22 42 40 33 69 25 24 21 20 33 81 20 118 39 1395 24 28 72 32 29 58 22 20 23 22 2980 306 30 57 39 40 30 21 26 45 20 20 10066 20 24 23 23 123 32 40 31 38 136 21 42 435
leaf_count=30 20 707 21 1972 37 36 892 33 21 22 29 22 42 40 33 69 25 24 21 20 33 81 20 118 39 1395 24 28 72 32 29 58 22 20 23 22 2980 306 30 57 39 40 30 21 26 45 20 20 10066 20 24 23 23 123 32 40 31 38 136 21 42 435
internal_value=-0.00502313 0.103473 -0.263412 0.357169 0.244906 0.0363179 -0.220772 -0.279011 -0.746479 -2.77269 -0.482497 -0.290438 0.704373 -0.102533 -0.16881 -0.532642 -0.82588 -0.448748 -0.469845 0.722491 -0.451148 -0.480077 -1.45959 -0.434991 0.203038 -0.511883 -0.809011 0.691661 -0.134169 -0.160254 -1.16576 -0.608122 -1.95984 -3.53546 0.324646 -0.88406 -0.0975858 0.371227 -1.06235 -0.810541 0.690795 -0.140814 0.226949 -1.032 -0.102541 -0.826602 -1.75016 0.0712354 0.0651279 -1.3729 1.10137 -0.231183 -0.648358 -0.878743 0.0708377 0.293049 -0.150711 0.352664 0.159871 -0.82964 0.499248 -0.997621
internal_weight=20800 14649 6151 3066 2317 11583 1385 1365 374 43 331 302 749 991 951 280 227 2527 2497 53 2473 2412 106 2306 248 2058 663 61 3624 3513 206 174 71 42 103 45 3307 327 202 172 111 209 148 61 918 85 40 10198 10138 40 60 103 80 639 10098 2280 270 2010 239 61 178 558
internal_count=20800 14649 6151 3066 2317 11583 1385 1365 374 43 331 302 749 991 951 280 227 2527 2497 53 2473 2412 106 2306 248 2058 663 61 3624 3513 206 174 71 42 103 45 3307 327 202 172 111 209 148 61 918 85 40 10198 10138 40 60 103 80 639 10098 2280 270 2010 239 61 178 558
is_linear=0
shrinkage=0.03


Tree=12
num_leaves=63
num_cat=0
split_feature=26 16 16 0 28 20 3 16 26 29 9 2 16 2 13 21 37 1 22 33 29 7 27 1 28 16 4 15 16 8 2 1 0 9 36 36 29 26 27 2 21 36 29 32 26 28 24 31 29 35 16 30 30 28 10 36 24 31 33 1 31 37
split_gain=600711 266021 158410 134028 128605 217468 118265 115744 106142 125453 103692 232312 144006 140037 226660 364993 156982 141300 133351 170824 133563 189205 127375 122375 144806 122043 120213 96619.6 295962 371509 94814.1 90215.8 200764 137244 211578 112223 89422.3 107778 88728.5 308323 88530.1 86548.6 140624 92505.6 83210.2 102581 81584.3 79813.6 96245.8 90657 78387.1 77250.3 71521.2 68677.5 65727.6 73373.9 122254 158056 143109 244479 132407 85892.6
threshold=-10.672149658203123 1.2257995605468752 -7.1040954589843741 49.50199261944983 -15.731702168782549 100.63800048828126 5.8500000000000014 46.872741699218757 30.562393188476566 149.67505817610675 153.04956054687503 53.625000000000007 -307.25120544433588 36.265000000000008 0.4910863228162114 83.480209350585952 -134.90212249755857 15.250000000000002 -101.33697509765624 100.53122622345411 107.69482943708792 -0.98296291314453399 388.27423095703131 20.250000000000004 -81.27431996663411 -53.275604248046868 972.50000000000011 12.482352409373863 79.345489501953139 -0.37940952255126015 53.905000000000008 22.750000000000004 56.133011321031283 760.15036010742199 189.57944488525393 244.87378692626956 313.04731631754083 4.4430847167968759 291.59231567382818 72.825000000000017 167.59683990478518 277.04620361328131 232.7045616130184 -2.7660218179225917 14.101036071777346 -40.193593343098946 -2.4989534616470332 166.63048469723063 134.49614857673603 76.818985074769628 53.603706359863288 -95.670018513997377 -52.139559388160698 -65.763361930847154 -36.016977474607963 -43.503047943115227 -2.0076675415039058 154.90911106046858 64.983179988263387 23.350000000000005 71.280065087387968 -110.67865753173827
decision_type=2 2 2 2 2 2 2 2 2 2 2 2 2 2 2 2 2 2 2 2 2 2 2 2 2 2 2 2 2 2 2 2 2 2 2 2 2 2 2 2 2 2 2 2 2 2 2 2 2 2 2 2 2 2 2 2 2 2 2 2 2 2
left_child=2 4 54 7 5 6 10 -3 -6 30 -2 13 -13 16 17 22 -12 -15 -14 20 21 -20 -16 24 -19 46 -24 41 -29 -30 -10 32 -5 36 -35 44 37 -34 -39 47 -22 42 53 52 -33 -46 -23 48 50 -50 -40 -25 -43 -4 -1 56 57 -56 60 -60 -58 -57
right_child=1 3 27 31 8 -7 -8 -9 9 -11 11 12 18 14 15 -17 -18 23 19 -21 40 25 26 51 -26 -27 -28 28 29 -31 -32 35 33 34 -36 -37 -38 38 39 -41 -42 43 -44 -45 45 -47 -48 -49 49 -51 -52 -53 -54 -55 55 61 58 -59 59 -61 -62 -63
leaf_value=-0.11395846028287425 0.25011511244437518 0.73381274065380842 1.5185833718272164 -2.8604935745694737 0.039677359618229449 2.2981002962866492 -1.9735052216416247 2.6132098908569672 -0.039970361053095371 2.3448960045909573 -2.3092642527063578 1.4493703272805285 1.0845741023844722 2.0043334930792622 -1.48974000933046 4.6138966448005583 -0.28101302049869054 -3.418494356977996 -3.7102830146979602 -3.6520018104849186 -0.91595898293829581 -0.81843881240877436 2.6505403560905876 1.7872048308946427 -0.52154305416920455 -0.29394705599696858 -0.26398729595405923 -0.22097621634766498 -5.6107736216411332 -0.69265491059526918 0.85364022606674428 0.18304427964682765 -0.071686739924573015 -0.25854775794704549 -3.513564013723117 1.706246453355037 -1.6854330648178173 0.76128152526865467 0.15008206285590034 -3.4555489611269818 1.7403206341946285 1.2507121712913338 -2.4792780578406144 2.2266889439072721 2.6861616787752265 0.56178655391021615 -2.4564938604738709 1.952048728109776 0.18403756757835288 -2.5732467459208928 1.1462177607508952 -0.10865521968037928 -1.1912797728562241 -0.09204304316112312 -0.94760105876428646 1.1843450883000166 -0.3243401035906549 -3.1715071667812258 2.3001084251811554 -1.5971866400533132 -2.9571096192039019 -0.46574079558365955
leaf_weight=355 314 162 24 20 10441 30 36 36 232 31 37 20 22 26 21 26 463 21 28 26 23 48 27 22 59 95 24 318 22 37 198 839 506 170 20 60 21 473 291 20 22 22 22 30 21 681 64 26 23 20 94 155 21 2104 387 29 93 31 42 22 21 1177
leaf_count=355 314 162 24 20 10441 30 36 36 232 31 37 20 22 26 21 26 463 21 28 26 23 48 27 22 59 95 24 318 22 37 198 839 506 170 20 60 21 473 291 20 22 22 22 30 21 681 64 26 23 20 94 155 21 2104 387 29 93 31 42 22 21 1177
internal_value=-0.00107506 0.0869535 -0.297041 0.318833 0.0223974 -0.227962 -0.276098 1.07667 0.0593492 0.504783 -0.236371 -0.360674 -1.01682 -0.101407 0.331832 1.57448 -0.431535 -0.0988892 -1.16759 -1.32981 -1.11296 -1.39958 0.472039 -0.312363 -1.28531 -1.08538 1.28117 -0.139349 -0.583368 -2.53292 0.371609 0.273124 0.119821 0.155812 -0.602849 0.434357 0.253638 0.281777 0.470627 0.180487 0.383646 -0.064025 -0.0985359 0.951136 0.384727 0.62571 -1.75583 0.341391 0.243114 -1.10142 0.393529 0.127864 0.0581145 -0.0738076 -0.487103 -0.560604 -0.832922 -1.11325 -0.174365 0.960012 -0.811491 -0.425967
internal_weight=20751 15994 4757 3483 12511 1609 1579 198 10902 461 1543 1229 348 881 381 98 500 283 328 306 280 235 72 257 80 207 51 2600 377 59 430 3285 1684 1664 190 1601 1474 1453 947 474 45 2223 2150 73 1541 702 112 454 428 43 385 177 43 2128 2157 1802 596 418 178 64 114 1206
internal_count=20751 15994 4757 3483 12511 1609 1579 198 10902 461 1543 1229 348 881 381 98 500 283 328 306 280 235 72 257 80 207 51 2600 377 59 430 3285 1684 1664 190 1601 1474 1453 947 474 45 2223 2150 73 1541 702 112 454 428 43 385 177 43 2128 2157 1802 596 418 178 64 114 1206
is_linear=0
shrinkage=0.03


Tree=13
num_leaves=63
num_cat=0
split_feature=36 23 25 6 5 17 30 30 29 13 2 18 24 35 2 18 17 15 29 3 35 17 24 15 37 30 30 4 31 29 23 28 13 10 29 18 28 23 2 20 37 1 3 21 33 27 12 21 2 17 17 21 37 37 30 32 2 23 12 30 31 1
split_gain=205276 200633 143332 120074 143608 115334 266159 176240 214203 161999 326032 220057 161562 146746 135286 133455 188123 115310 99269.6 96268.8 95809.7 94887.1 92188.9 90074.8 97768.1 122621 89868.2 88529.4 245536 135531 234661 242528 485266 212355 119479 224095 150910 225437 151271 108840 101523 94485 106006 93214.6 89122.4 86780.3 139305 125687 124584 227147 143054 217095 134541 124584 122693 154849 296117 119915 85249.2 241191 169824 138538
threshold=-34.758300781249993 2.402320504188538 2.2924567461013798 2.5000000000000004 1.0000000180025095e-35 547.16314697265636 -109.89910380045571 -109.89910380045571 214.10510759843007 0.97389571544981079 52.735000000000007 36.362396240234382 -2.1992284059524532 127.17266819796525 65.135000000000005 100.63800048828126 770.94137573242199 10.79807612000487 214.10510759843007 2.4500000000000006 104.92948296653258 452.66571044921881 -9.2875528335571271 -1.416535578161551 -287.10810852050776 -72.532362620035784 -26.973353068033852 972.50000000000011 210.78568703871056 44.711392428159442 12.038661479949953 13.978729248046877 0.8635302173089473 11.866766124807535 189.03000823580552 -209.06256103515622 3.3273704846700034 246.38018798828128 49.245000000000012 -30.846925735473629 176.24585723876956 14.450000000000001 2.5500000000000003 399.64270019531256 5.4457360731818065 79.093067169189467 684.80600056463584 7.5432572364807138 73.135000000000005 137.15104675292972 475.03630065917974 239.27768707275393 11.399504184722902 85.556632995605483 -19.883834163347874 -43.493396927913018 46.745000000000012 39.171995162963874 564.1984500175688 11.043747246265413 21.821504754806512 14.450000000000001
decision_type=2 2 2 2 2 2 2 2 2 2 2 2 2 2 2 2 2 2 2 2 2 2 2 2 2 2 2 2 2 2 2 2 2 2 2 2 2 2 2 2 2 2 2 2 2 2 2 2 2 2 2 2 2 2 2 2 2 2 2 2 2 2
left_child=1 2 -1 4 -2 7 -7 -3 9 23 11 12 -11 14 15 18 -17 -10 20 -12 -8 -6 -4 26 -25 -26 -9 34 29 44 31 33 -33 -31 35 -5 37 -36 40 41 -38 -32 -43 -44 -29 -37 48 -48 50 -50 51 57 -53 -51 55 -52 -57 58 60 -60 -47 -62
right_child=3 5 22 27 21 6 13 8 17 10 19 -13 -14 -15 -16 16 -18 -19 -20 -21 -22 -23 -24 24 25 -27 -28 28 -30 30 39 32 -34 -35 36 45 38 -39 -40 -41 -42 42 43 -45 -46 46 47 -49 49 53 54 52 -54 -55 -56 56 -58 -59 59 -61 61 -63
leaf_value=-1.9325096080982453 -0.18564149541689029 2.0550640173784389 -2.5107303025117562 -2.7732176807297177 0.57268574604089761 -3.7822821894688388 -0.20857607284510113 -2.8661846312124335 -0.37869138501887945 -0.065927746360755754 0.75433919241814196 4.8278663571333986 3.1649298125777499 1.6687086903414157 -2.4929341831426508 -3.7321300441298741 -0.24478913693269574 -3.329085568038896 1.7624958922757821 -1.7388688441849907 -1.6885169944623959 0.11260738929949952 -0.40439158415119103 1.8873281962551269 -1.3086729121098322 0.030310765558516025 -0.025628968850890201 -0.3108200400572691 -3.3043683467883067 -1.3274285517201658 -1.3027685400042961 -5.8426061026142158 -0.43830198261225334 1.7095995489521658 3.4737889372457667 -0.0041941439097555669 -0.37262657528039822 -0.28625673194984336 -1.3489953920847644 -0.72750407452018884 2.1887376405681369 0.11063374015554289 3.4169123916064992 0.80682165033028219 0.02080214493751005 0.049818871406221842 0.57715944047222667 3.0071253705380565 0.13122021251922064 -1.1181229413001614 1.6120060848524844 0.63576599970771086 2.9359099128095774 -3.9290355813988729 0.11007508460942278 -0.50978928074078633 -4.253423344580483 -1.3439006331795951 0.42951227761706245 -2.4488980108691796 -0.6453538976217571 1.3451806742283363
leaf_weight=88 520 38 20 25 990 20 937 20 22 33 24 22 24 33 26 24 33 26 22 33 41 681 270 24 65 1130 20 851 21 88 20 28 32 27 38 5844 24 23 37 97 33 63 22 28 5099 280 412 20 115 40 25 43 49 22 1623 193 21 37 113 34 36 247
leaf_count=88 520 38 20 25 990 20 937 20 22 33 24 22 24 33 26 24 33 26 22 33 41 681 270 24 65 1130 20 851 21 88 20 28 32 27 38 5844 24 23 37 97 33 63 22 28 5099 280 412 20 115 40 25 43 49 22 1623 193 21 37 113 34 36 247
internal_value=0.00321049 -0.226664 -0.872642 0.0416716 0.24972 -0.133329 -0.360713 0.0410978 -0.0120768 0.0557883 1.03903 2.28557 1.29759 -0.299061 -0.359169 -0.306452 -1.71711 -1.98042 -0.225881 -0.689614 -0.270785 0.385203 -0.550472 -0.0504974 -0.00447527 -0.0426244 -1.44951 0.0126547 -0.0735107 -0.0627826 -0.593737 -1.42126 -2.96584 -0.613521 0.071514 0.0575613 0.897215 2.05792 0.142606 0.0362458 1.1115 0.593394 0.929854 1.95979 -0.0266326 0.0653225 0.188055 0.690328 0.11264 -0.658187 0.163176 0.488401 1.8627 -2.12026 0.0166139 -0.617843 -0.87897 0.318917 0.405748 -0.237455 0.573701 1.09183
internal_weight=20896 2995 378 17901 2191 2617 1136 1481 1443 1395 136 79 57 1116 1083 1057 57 48 1000 57 978 1671 290 1259 1219 1195 40 15710 6376 6355 405 175 60 115 9334 9179 155 61 94 230 57 133 113 50 5950 9154 3310 432 2878 177 2701 839 92 62 1862 239 214 747 710 147 563 283
internal_count=20896 2995 378 17901 2191 2617 1136 1481 1443 1395 136 79 57 1116 1083 1057 57 48 1000 57 978 1671 290 1259 1219 1195 40 15710 6376 6355 405 175 60 115 9334 9179 155 61 94 230 57 133 113 50 5950 9154 3310 432 2878 177 2701 839 92 62 1862 239 214 747 710 147 563 283
is_linear=0
shrinkage=0.03


Tree=14
num_leaves=63
num_cat=0
split_feature=16 6 31 15 37 29 21 28 18 27 9 9 17 0 18 27 9 29 36 4 17 1 27 1 32 16 22 27 1 33 9 0 35 10 30 22 37 20 10 24 36 0 17 29 32 32 18 0 23 17 36 1 23 15 9 9 9 28 36 1 21 29
split_gain=354873 165813 206806 329042 206864 193252 150502 149359 189836 106713 115881 93940.7 92076.8 85710.7 83743.7 76572.3 144779 141413 75489.1 86512.4 103441 272063 236909 216920 165282 164254 145843 131284 114041 111764 96524.5 95834.6 126963 95826.7 120546 91027.9 84392.3 169338 124240 149649 101006 166622 175673 127039 87478.5 77794.5 74376.7 190002 130144 100906 76528.7 74235.2 69840.7 81523.3 81707.4 68857.6 67135.7 66158.8 151195 62558.1 62390 62170.5
threshold=-4.6271789073944083 14.500000000000002 174.29045916209193 8.6593142773976073 -154.20866394042966 214.10510759843007 671.56375122070324 -75.717077891031877 -247.62701416015622 981.47817993164074 879.14218139648449 373.02844238281256 460.32841491699224 43.687931955193058 160.96026611328128 84.319610595703139 260.22547912597662 61.961152422832299 132.91955566406253 972.50000000000011 526.17752075195324 19.750000000000004 604.39932250976574 15.850000000000003 -18.73399785161018 -161.43434906005857 -9.2597341537475568 427.37359619140631 23.750000000000004 56.661437966286137 560.61077880859386 99.690361758755955 30.839189258058834 -8.2649515659491595 -14.995418846607206 -2.6456419229507442 -48.985830307006829 57.034433364868171 -25.667034609600829 -1.9860841631889341 -150.99725341796872 98.669597583633873 356.57676696777349 86.490650204176305 -33.495145286122955 -26.067028775811192 -110.80288696289061 93.695983001330021 114.5409507751465 356.57676696777349 104.36018371582033 21.050000000000004 2.2146178483963017 8.4928402304486479 292.67030334472662 373.02844238281256 760.15036010742199 -36.247685750325516 49.89704895019532 15.550000000000002 9.308537960052492 52.905872067120349
decision_type=2 2 2 2 2 2 2 2 2 2 2 2 2 2 2 2 2 2 2 2 2 2 2 2 2 2 2 2 2 2 2 2 2 2 2 2 2 2 2 2 2 2 2 2 2 2 2 2 2 2 2 2 2 2 2 2 2 2 2 2 2 2
left_child=1 15 5 -4 -5 9 7 51 -9 13 -11 -7 -8 -3 18 -1 -17 -18 19 20 22 29 24 -24 35 -25 -27 33 -28 -22 -30 32 -29 -26 -35 -15 37 38 39 -21 41 42 -40 52 -38 -46 47 49 50 -10 -49 59 60 61 -55 -34 -23 58 -14 -2 -42 -54
right_child=6 2 3 4 -6 11 12 8 46 10 -12 -13 57 14 -16 16 17 -19 -20 36 21 56 23 25 27 26 28 31 30 -31 -32 -33 55 34 -36 -37 44 -39 40 -41 43 -43 -44 -45 45 -47 -48 48 -50 -51 -52 -53 53 54 -56 -57 -58 -59 -60 -61 -62 -63
leaf_value=-0.095173264135114857 1.8458886120114388 -1.844438789037665 3.3840805114843904 -1.606455786819653 1.8040980768819574 -0.98297121778902286 0.81853964125875767 -2.1317608714268808 3.8673010327922759 2.5714199265437339 0.13754481594645163 -3.6731221577161035 0.65055994502187131 -0.60516690723739008 1.2427235159466037 0.50625639415807977 0.087489432793422098 -1.619869155526737 -1.954073420338247 -0.61008441410849301 -0.91205093966466233 0.10053456294252307 -1.1579511131207967 4.0679704434192017 1.3100237765402163 3.3229960648722234 -0.835727840566175 0.074435382691499227 2.9878556016497133 -3.3355377801345041 0.078713417409071271 -0.6939300431385298 1.5441245932596008 -1.2736030182979663 0.0052507279602477634 -2.2539975280956841 1.4744930231435731 1.8103147301063718 -3.2461993700508618 2.1126966372873985 -0.95461108604489997 -4.4826607649925192 0.39048405241692202 0.93742520512210925 -2.195064402078565 -0.35825097641040876 0.038103226509785371 0.24594918412047542 0.94767033230279374 1.1148195109494103 -2.0354618688859643 2.8426735772714982 -0.75093973825108484 -1.3909624776404923 -3.9282328812784733 3.8554819655062547 -0.4598332386024987 0.28057696150104861 -2.3422667825773513 -0.4390441181252917 0.99831664811319365 -2.3628004883531997
leaf_weight=2173 22 34 35 39 27 25 295 36 20 20 142 22 33 132 30 557 147 62 26 102 32 303 29 22 37 22 31 32 21 37 20 22 28 86 289 39 23 21 22 22 55 21 26 28 21 1275 11730 23 62 30 31 23 93 24 22 20 527 1648 28 21 20 28
leaf_count=2173 22 34 35 39 27 25 295 36 20 20 142 22 33 132 30 557 147 62 26 102 32 303 29 22 37 22 31 32 21 37 20 22 28 86 289 39 23 21 22 22 55 21 26 28 21 1275 11730 23 62 30 31 23 93 24 22 20 527 1648 28 21 20 28
internal_value=0.00186285 -0.174719 -0.30213 1.03719 -0.210611 -0.337466 0.0885151 0.048317 0.0404385 -0.313685 0.439424 -2.24732 0.329168 -0.34738 -0.333143 -0.00425632 0.253637 -0.419532 -0.346465 -0.334576 -0.182942 -0.405885 0.0585546 1.15974 -0.174679 1.73967 1.191 0.0941476 0.53585 -2.21455 1.57241 1.05719 1.53901 -0.144473 -0.288294 -0.982314 -0.479968 -0.818776 -0.938387 -0.125697 -1.23553 -2.25953 -1.27961 -0.973101 -0.355592 -0.388181 0.0470299 0.677409 0.0105848 2.22133 -1.06509 1.47044 -1.19445 -1.53587 -2.61033 2.5132 -0.255278 0.244652 -0.724782 0.731562 -0.433194 -1.12558
internal_weight=20873 6871 3932 101 66 3831 14002 11998 11932 3784 162 47 2004 3622 3588 2939 766 209 3558 3532 1729 899 830 145 685 116 94 514 72 69 41 102 80 412 375 171 1803 484 463 124 339 69 48 270 1319 1296 11896 166 116 50 54 66 242 167 46 48 830 1709 61 43 75 121
internal_count=20873 6871 3932 101 66 3831 14002 11998 11932 3784 162 47 2004 3622 3588 2939 766 209 3558 3532 1729 899 830 145 685 116 94 514 72 69 41 102 80 412 375 171 1803 484 463 124 339 69 48 270 1319 1296 11896 166 116 50 54 66 242 167 46 48 830 1709 61 43 75 121
is_linear=0
shrinkage=0.03


Tree=15
num_leaves=63
num_cat=0
split_feature=16 27 19 18 8 18 1 12 32 28 3 2 29 16 3 35 15 18 27 30 2 2 32 29 17 19 27 6 11 25 27 1 16 15 4 18 19 34 10 37 15 15 2 19 28 25 20 30 36 30 36 5 20 4 25 22 15 20 20 25 16 27
split_gain=452902 152768 180849 134404 130127 132230 339920 105038 324809 161118 150392 139845 148764 97442.8 93220.7 113145 353181 262952 177989 181877 154949 117751 114382 127008 233488 304280 216623 93557.4 90012.3 82729.1 81653.7 80080 203405 660965 220620 176546 247366 169856 169655 139186 117704 107958 105787 91030.7 75830.6 73467.9 73125.1 126709 138712 114367 80250.1 71931.8 77925.5 67476.4 92802.3 66421.3 69738.2 66243.3 63527.1 62724.6 60189.2 73654.8
threshold=-25.925167083740231 183.88663482666018 93.444061279296889 -146.29359436035153 0.91597561503675351 -247.62701416015622 22.150000000000006 241.58353177042213 -4.4810910920302058 -95.744234720865862 2.1500000000000008 53.905000000000008 86.490650204176305 -4.5281167030334464 6.1500000000000012 106.51345922934391 8.4485558379616545 100.63800048828126 681.68942260742199 -52.139559388160698 59.225000000000001 56.195000000000007 -65.299256702264131 134.49614857673603 365.19097900390631 703.44366455078136 613.57138061523449 19.500000000000004 4.6393338928515231 32.329166412353523 84.319610595703139 23.550000000000004 79.345489501953139 12.904887083285521 970.50000000000011 -44.937599182128899 497.61012268066412 -4.3834594761331873 -23.889230932158501 89.531726837158217 9.6747572606063041 11.220068885556488 63.915000000000006 204.91996765136722 -65.763361930847154 2.00135350227356 -185.84681701660153 -86.231237570444733 79.996425628662124 -78.979339281717913 -1.0368886590003965 1.0000000180025095e-35 -69.950500488281236 968.50000000000011 2.3797284364700322 -4.1955337524414054 9.6341999533089862 132.95477294921878 -8.6218948364257795 3.2159161567687993 -58.347442626953118 238.6882019042969
decision_type=2 2 2 2 2 2 2 2 2 2 2 2 2 2 2 2 2 2 2 2 2 2 2 2 2 2 2 2 2 2 2 2 2 2 2 2 2 2 2 2 2 2 2 2 2 2 2 2 2 2 2 2 2 2 2 2 2 2 2 2 2 2
left_child=1 3 53 -1 5 6 -2 14 9 -9 11 12 -11 29 15 17 21 22 19 27 -19 -17 -4 46 28 26 -26 -18 -25 44 -31 32 -15 34 40 36 39 38 -36 -33 42 -42 43 -34 -7 -39 49 50 60 -24 -48 -6 -53 -3 -55 -47 -57 -54 -37 -59 61 -49
right_child=4 2 7 -5 51 13 -8 8 -10 10 -12 -13 -14 31 -16 16 18 20 -20 -21 -22 -23 23 24 25 -27 -28 -29 -30 30 -32 35 33 -35 37 58 -38 45 -40 -41 41 -43 -44 -45 -46 55 47 48 -50 -51 -52 52 57 54 -56 56 -58 59 -60 -61 -62 -63
leaf_value=2.0967170275363722 -3.2040204381018129 0.24385329195827346 -2.0190275952029411 -0.012547084405942689 -0.35434568444685444 -1.9471976385488139 1.5216400539173798 -2.4572757175990509 3.8207991472917704 0.11500834985212845 -1.0298765513061776 -0.60729748505690562 3.2977043276047779 0.053106721018056989 -2.3767077182752514 1.1774690086485573 -1.1156228227734071 -4.1602525556219456 1.3179512170644907 0.3090512253134452 -0.91391998625349713 4.3613038536327986 -3.1877658615284914 0.0034015128194396175 0.31443051548747269 -0.9132403899461794 4.0214998578125574 -3.7684101080993395 -2.8392829055216771 -0.049965643612662786 0.50213608775584495 3.841397444174087 3.7982246896101963 -4.1170222329444623 -0.55813479712054981 0.40207331056512624 -0.26639353247956438 -1.2902790998620739 -3.1984930838981684 1.2280765518583263 -1.646407909502928 1.2395212130523969 -0.2915531699337176 1.253547539220792 -0.21868653746652211 2.0049930515573986 -0.1062568050948571 1.0173499837305873 -2.3658023956494452 -0.056350962795428367 1.8687709789982014 0.89533466419443009 0.28633190671201075 -1.9521462435683015 -0.86910652531286514 1.1098859565386634 -1.1495216407623898 -1.7941812130907804 0.042247503851146659 0.12798488909362726 -0.24772036479553805 -0.79999808481836732
leaf_weight=29 36 30 39 414 157 23 22 23 21 23 51 30 31 9848 22 22 24 27 35 39 26 20 22 20 23 35 37 24 20 1427 290 34 21 44 47 661 52 27 41 40 26 21 20 32 2064 20 42 21 35 20 33 187 1765 109 206 24 25 27 1330 35 583 418
leaf_count=29 36 30 39 414 157 23 22 23 21 23 51 30 31 9848 22 22 24 27 35 39 26 20 22 20 23 35 37 24 20 1427 290 34 21 44 47 661 52 27 41 40 26 21 20 32 2064 20 42 21 35 20 33 187 1765 109 206 24 25 27 1330 35 583 418
internal_value=-0.00620789 -0.380492 -0.486776 0.125973 0.045899 0.0166271 -1.41199 -0.364006 0.324761 -0.142025 0.253952 1.03372 1.94483 0.021777 -0.441708 -0.414357 0.331036 -0.501629 -0.486169 -1.21264 -2.57243 2.70034 -0.420026 -0.372235 0.498927 1.30816 2.60334 -2.44709 -1.42148 -0.110935 0.0433077 0.0627778 0.0279152 -0.684786 -0.186824 0.230675 1.31926 -0.839311 -1.79054 2.43236 0.813521 -0.357056 1.56664 2.26707 -0.237828 0.033601 -0.472445 -0.426743 -0.511303 -1.70029 0.764087 0.263979 0.312195 -1.11493 -1.24437 0.552759 -0.0428664 0.252463 0.161722 -0.710629 -0.447568 -0.712852
internal_weight=20900 2554 2111 443 18346 16175 58 1766 179 158 135 84 54 16117 1587 1565 164 1401 122 87 53 42 1348 1309 135 95 60 48 40 3804 1717 12313 10196 348 304 2117 126 184 88 74 120 47 73 53 2087 96 1174 1132 1057 42 75 2171 2014 345 315 69 49 1827 1991 62 1022 439
internal_count=20900 2554 2111 443 18346 16175 58 1766 179 158 135 84 54 16117 1587 1565 164 1401 122 87 53 42 1348 1309 135 95 60 48 40 3804 1717 12313 10196 348 304 2117 126 184 88 74 120 47 73 53 2087 96 1174 1132 1057 42 75 2171 2014 345 315 69 49 1827 1991 62 1022 439
is_linear=0
shrinkage=0.03


Tree=16
num_leaves=63
num_cat=0
split_feature=26 16 16 26 9 2 25 35 15 2 9 2 28 4 1 28 10 18 17 30 29 15 15 17 2 29 37 29 17 18 15 20 3 12 18 9 8 36 2 18 37 18 18 0 20 27 0 18 16 37 28 16 9 26 16 32 27 17 26 16 2 26
split_gain=540373 201755 136670 128592 124171 337060 119199 289175 205296 129146 142865 197001 142120 116789 103571 162708 89440.3 381970 125412 182649 154389 260282 139380 88501.9 87919.3 89749.7 106341 82621.3 164409 242020 165515 149582 85428 82551.5 78873.8 175060 153070 185215 102048 96905.3 76668.4 74318.6 96799.4 170475 72583.3 81116.9 72389.9 69921.5 68744 118785 166063 76455.8 152518 72372.7 73925.2 80448.3 63215.3 60723 243745 406646 92246.9 285316
threshold=-10.672149658203123 1.2257995605468752 -7.1040954589843741 9.4594268798828143 305.71641540527349 70.035000000000011 2.3573552370071416 114.91504905169212 9.5918446854723864 53.305000000000007 389.44311523437506 60.915000000000006 -10.883963902791338 972.50000000000011 22.750000000000004 -36.247685750325516 34.398802151621283 -9.5877227783203107 311.16950988769537 11.430192470550539 177.7862530050883 8.4485558379616545 9.9545442638443848 239.27768707275393 58.645000000000003 79.694245764075859 -97.25832366943358 83.111704428882319 573.65170288085949 -20.284104347229 11.788117019612388 -146.29359436035153 3.1500000000000008 693.76037873353619 -86.809112548828111 560.61077880859386 0.91597561503675351 -179.68934631347653 63.340000000000011 -77.04613876342772 -47.284004211425774 -247.62701416015622 -110.80288696289061 101.18861428007865 -146.29359436035153 670.96469116210949 126.67034388417746 -185.84681701660153 -185.84681701660153 -201.26738739013669 -70.02610588073729 -132.02277374267575 340.42141723632818 -247.62701416015622 -69.950500488281236 -13.176436170935629 388.27423095703131 278.17323303222662 -161.43434906005857 79.345489501953139 63.915000000000006 -53.275604248046868
decision_type=2 2 2 2 2 2 2 2 2 2 2 2 2 2 2 2 2 2 2 2 2 2 2 2 2 2 2 2 2 2 2 2 2 2 2 2 2 2 2 2 2 2 2 2 2 2 2 2 2 2 2 2 2 2 2 2 2 2 2 2 2 2
left_child=2 6 34 -3 33 14 7 9 -9 27 12 13 24 -12 16 -16 18 -18 19 22 -20 -22 23 -6 -11 26 -26 31 30 -30 -29 -2 -31 -5 35 36 37 -1 -38 -36 -39 -4 43 -43 45 -44 -27 -8 49 50 -41 52 -50 -53 55 -55 -45 58 59 -46 -59 -62
right_child=1 3 41 4 5 -7 47 8 -10 10 11 -13 -14 -15 15 -17 17 -19 20 -21 21 -23 -24 -25 25 46 -28 28 29 32 -32 -33 -34 -35 39 -37 38 40 -40 48 -42 42 44 56 57 -47 -48 -49 51 -51 -52 53 -54 54 -56 -57 -58 60 -60 -61 61 -63
leaf_value=-3.2215564467690201 2.3826644366682923 0.056680333412235002 -1.7341393246047798 0.66096609605423318 -0.08494498884523069 -3.0331683246851844 1.357012560883301 4.2021777167714012 0.26827502387693553 -1.9105420949750409 -1.9999204755041522 -3.4325410142883923 1.9938398674352844 0.76091031940220899 2.7747024875633493 0.48898197214269018 1.0774670779598989 -4.3400070460874636 0.14189366471130549 3.0927481971309825 -3.7512545864895519 0.71596347864936372 -1.8123567865855656 2.6050662049750013 -2.5971071622925672 1.468589209453163 -0.35536702839263051 1.7997958232230802 -3.727175070311862 -1.6089652350076735 -1.581075589690728 -0.10983439283745851 0.53092819712728345 1.7251861051617865 -2.3790330446098902 1.8865656519561165 2.8392825318806203 -0.70446428208254941 -0.08653327551755037 -2.0036923567360301 0.9931665907335433 2.3045116335376536 1.5155788690821466 0.91983781833758294 -0.1600375510213381 -0.73122586889007068 -0.78989716430208567 0.052422046175846344 -0.77469024327983482 -2.9667716868689138 0.91966785932595618 0.95996218945496892 2.1174526753219651 -0.60336091023303573 -0.45849439863007074 -1.946564580108713 -1.0182331087846834 0.045700412589229439 -0.22940828373246799 -4.9201180553084365 -3.3472607023161713 1.2471061454099768
leaf_weight=23 22 1387 26 522 23 27 37 22 26 40 28 39 20 27 29 766 28 20 451 30 25 22 20 21 24 35 91 34 31 33 21 1113 34 75 25 39 20 104 23 37 31 40 46 26 40 21 20 10964 36 27 33 30 30 105 1535 65 36 1001 1326 27 27 22
leaf_count=23 22 1387 26 522 23 27 37 22 26 40 28 39 20 27 29 766 28 20 451 30 25 22 20 21 24 35 91 34 31 33 21 1113 34 75 25 39 20 104 23 37 31 40 46 26 40 21 20 10964 36 27 33 30 30 105 1535 65 36 1001 1326 27 27 22
internal_value=-0.00680893 0.0764578 -0.286159 0.279972 0.430378 0.281471 0.0210646 -0.215893 2.0763 -0.284272 -0.819561 -1.80435 -0.416472 -0.645682 0.344044 0.572699 0.0599676 -1.18414 0.161024 1.16544 -0.0287602 -1.66314 0.258601 1.20192 -0.646865 -0.348581 -0.825058 -0.149565 -0.803755 -1.53993 0.508391 -0.061316 -0.523876 0.794929 -0.462921 0.0498549 -0.307283 -0.739185 1.27774 -0.526917 -0.314191 -0.141212 -0.12529 0.78022 -0.162117 0.811316 0.647378 0.0568221 -0.502398 -1.28008 -0.626191 -0.460444 0.541135 -0.498573 -0.524291 -1.11778 -0.205321 -0.188846 -0.318693 -2.08275 -0.0165689 -1.28614
internal_weight=20908 16107 4801 3446 2059 1462 12661 1660 48 1612 324 94 230 55 1435 795 640 48 592 94 498 47 64 44 210 170 115 1288 153 98 55 1135 67 597 2163 240 201 158 43 1923 135 2638 2612 102 2510 67 55 11001 1898 97 70 1801 66 1735 1705 170 62 2443 1393 67 1050 49
internal_count=20908 16107 4801 3446 2059 1462 12661 1660 48 1612 324 94 230 55 1435 795 640 48 592 94 498 47 64 44 210 170 115 1288 153 98 55 1135 67 597 2163 240 201 158 43 1923 135 2638 2612 102 2510 67 55 11001 1898 97 70 1801 66 1735 1705 170 62 2443 1393 67 1050 49
is_linear=0
shrinkage=0.03


Tree=17
num_leaves=63
num_cat=0
split_feature=26 16 16 29 37 34 16 18 25 1 36 10 10 18 17 4 26 26 35 29 16 4 9 27 27 23 3 25 37 11 28 1 30 35 1 35 28 26 3 16 35 1 1 16 26 3 17 23 30 26 36 20 4 9 18 34 34 23 27 21 27 3
split_gain=497892 216838 132025 128371 159027 136364 120594 119476 113867 124506 362936 451364 219995 170352 229579 130361 116585 108719 131877 202135 106094 115727 100965 134875 146949 121677 160036 191517 129846 120690 109383 105267 108347 146354 104411 96625 84868.2 84040.7 79003.7 78673.6 75207.9 75101.1 74519.7 73611 78281 72319.7 71375.3 70100.1 235105 199601 65039 63976.5 63209.5 60002.6 76379.3 74106.9 71133.4 62283.2 54876.9 93335.1 91520.6 54291.2
threshold=-5.6464316844940177 1.2257995605468752 -30.846925735473629 86.490650204176305 -349.83590698242182 -0.89851050575574232 -58.347442626953118 -185.84681701660153 5.8440055847167978 22.650000000000006 217.12430572509768 -24.21679173599362 34.398802151621283 -44.937599182128899 482.12609863281256 972.50000000000011 43.874118804931648 -11.735363483428953 127.17266819796525 214.10510759843007 -185.84681701660153 972.50000000000011 800.02709960937511 633.33532714843761 238.6882019042969 5.0957210063934335 3.6500000000000008 1.9591053724288943 -225.40385437011716 2.9526475122430007 -129.97521336873371 20.250000000000004 -109.89910380045571 91.986776647823532 25.650000000000006 75.367277109548681 -70.02610588073729 34.842208862304695 1.9500000000000002 46.872741699218757 80.024365712562044 23.750000000000004 23.050000000000004 89.44040679931642 65.524406433105483 1.4500000000000002 311.16950988769537 2.6153172254562382 16.926198760668438 -185.84681701660153 -74.772964477539048 11.399169921875002 973.50000000000011 143.16779327392581 -92.815319061279283 -26.71836516757806 -33.044779914120831 1.9841302633285525 474.38696289062506 7.5432572364807138 379.88049316406256 2.850000000000001
decision_type=2 2 2 2 2 2 2 2 2 2 2 2 2 2 2 2 2 2 2 2 2 2 2 2 2 2 2 2 2 2 2 2 2 2 2 2 2 2 2 2 2 2 2 2 2 2 2 2 2 2 2 2 2 2 2 2 2 2 2 2 2 2
left_child=2 6 3 7 -5 17 22 -1 9 10 12 15 36 14 -11 -12 -10 18 19 20 35 41 23 24 37 29 28 -28 -27 -25 -30 32 -26 51 38 -6 -3 -2 45 -18 -23 -22 -24 -38 46 -33 -45 48 52 -50 -32 -34 58 -9 61 56 -56 -57 59 -4 -61 -55
right_child=1 8 47 4 5 -7 -8 53 16 13 11 -13 -14 -15 -16 -17 39 -19 -20 -21 21 40 42 25 31 26 27 -29 30 -31 50 34 33 -35 -36 -37 43 -39 -40 -41 -42 -43 -44 44 -46 -47 -48 -49 49 -51 -52 -53 -54 54 55 57 -58 -59 -60 60 -62 -63
leaf_value=-3.0179493676370646 -0.25451113699635619 -1.4409498809448467 -0.15705429383243175 -2.6112247495508902 0.28071374691377476 -1.706615731315078 0.054237076066505852 0.048837489703451371 0.42847366597867309 3.8063061157631317 0.39297777371654796 -5.323450028352223 -2.956690216064453 0.31417111138184811 0.62808073766517936 -2.1457011229968153 0.91073229185172488 2.0611746391980752 2.2098573842371603 -2.5638075773743374 0.62794647936735137 0.86307599922928069 -2.9561458830110623 0.33494375068763083 0.79961099353446763 -2.7935824016824151 3.4553471782628224 -0.309676814167262 1.453692086537679 3.3259786741765911 -2.264499141920858 0.079931427115824669 -1.3040170198149055 -3.1343360803258697 -1.785834059221991 -2.0157994137596837 0.17505704108360529 1.5447159791541527 -0.44579746264677778 2.3248064794754058 3.3555779464209254 -1.4480248577786847 -0.62300564563995564 3.1541337363533115 -0.18203424282644276 2.6283974206269676 0.96782108014517454 -0.070773587453389783 -4.3014935378711741 -0.29892785537864358 -0.16329659501000132 0.43792530508602362 -0.46501016554635766 -0.52687364669695291 -0.88129056607488421 -2.4126930190556082 -2.8848091945770848 -0.70916657126785787 -1.054562253333263 1.6795728494976363 -0.23591914243457321 1.0474264708634848
leaf_weight=20 58 27 1225 20 38 32 10818 91 608 30 46 24 20 1075 64 30 128 30 25 26 61 24 22 27 21 21 22 27 26 22 20 20 136 38 26 29 850 39 48 49 20 21 28 20 30 20 41 2942 24 21 39 22 782 51 33 20 31 509 55 51 40 32
leaf_count=20 58 27 1225 20 38 32 10818 91 608 30 46 24 20 1075 64 30 128 30 25 26 61 24 22 27 21 21 22 27 26 22 20 20 136 38 26 29 850 39 48 49 20 21 28 20 30 20 41 2942 24 21 39 22 782 51 33 20 31 509 55 51 40 32
internal_value=-0.00683356 0.0894255 -0.230692 -0.526916 -0.0263039 0.143443 0.0298435 -0.734256 0.314661 0.206399 -0.024567 -1.7459 0.149816 0.421346 1.64538 -0.610635 0.625866 0.360052 0.150139 -0.08589 0.249078 0.761788 -0.357043 -0.254235 -0.556761 0.380438 -0.0318093 1.38434 -0.687131 1.6819 -0.164042 -0.857628 -1.24526 -1.46464 -0.119331 -0.714822 0.214299 0.469735 0.374513 1.30329 2.00107 0.0951791 -1.65344 0.261941 1.07241 1.35754 1.68863 -0.166539 -0.294712 -2.43843 -0.878195 -1.06134 -0.249794 -0.674321 -0.771662 -0.890946 -1.85473 -0.774016 -0.127013 -0.0881707 0.838264 0.0806155
internal_weight=20795 14542 6253 1113 326 306 11500 787 3042 2257 1088 100 988 1169 94 76 785 274 244 219 193 126 682 632 428 204 155 49 106 49 85 331 217 196 114 67 968 97 88 177 44 82 50 941 91 40 61 5140 2198 45 59 158 2153 767 676 593 64 529 1371 1316 91 83
internal_count=20795 14542 6253 1113 326 306 11500 787 3042 2257 1088 100 988 1169 94 76 785 274 244 219 193 126 682 632 428 204 155 49 106 49 85 331 217 196 114 67 968 97 88 177 44 82 50 941 91 40 61 5140 2198 45 59 158 2153 767 676 593 64 529 1371 1316 91 83
is_linear=0
shrinkage=0.03


Tree=18
num_leaves=63
num_cat=0
split_feature=26 16 10 10 26 29 18 37 11 16 34 29 16 29 9 1 1 26 31 18 27 9 37 10 27 20 9 37 16 1 7 15 18 19 15 37 18 17 9 1 24 26 20 26 37 29 9 30 28 26 9 4 16 15 27 29 9 29 37 19 19 16
split_gain=503836 174759 164173 113263 118550 293122 312769 272788 162553 151315 125124 92899.5 107453 131269 207934 195345 160152 188996 198017 146325 126890 108149 105481 132717 93163.4 88541.8 178045 84566.7 81987.4 77845.9 146583 298588 207031 122873 129505 116901 110146 107797 75752 83363.5 107168 74321.3 78840 74273.7 76911.6 73190.7 204990 223031 96582.7 75909.8 84798.8 66787.5 76622.8 171698 81529.5 153037 108717 172838 206683 107911 109292 68038.2
